 4.36321e-16  2.60681e-16 -4.03561e-15
-2.80212e-18 -3.87249e-19  5.61127e-20
6.74625e-20 4.98561e-21 4.60194e-21
-9.70981e-23  3.49181e-21 -7.31847e-21
-9.70981e-23  3.49181e-21 -7.31847e-21
-9.70981e-23  3.49181e-21 -7.31847e-21
-9.70981e-23  3.49181e-21 -7.31847e-21
-9.70981e-23  3.49181e-21 -7.31847e-21
-9.70981e-23  3.49181e-21 -7.31847e-21
-9.70981e-23  3.49181e-21 -7.31847e-21
-9.70981e-23  3.49181e-21 -7.31847e-21
-9.70981e-23  3.49181e-21 -7.31847e-21
-9.70981e-23  3.49181e-21 -7.31847e-21
-9.70981e-23  3.49181e-21 -7.31847e-21
-9.70981e-23  3.49181e-21 -7.31847e-21
-9.70981e-23  3.49181e-21 -7.31847e-21
-9.70981e-23  3.49181e-21 -7.31847e-21
-9.70981e-23  3.49181e-21 -7.31847e-21
-9.70981e-23  3.49181e-21 -7.31847e-21
-9.70981e-23  3.49181e-21 -7.31847e-21
-9.70981e-23  3.49181e-21 -7.31847e-21
-9.70981e-23  3.49181e-21 -7.31847e-21
-9.70981e-23  3.49181e-21 -7.31847e-21
-9.70981e-23  3.49181e-21 -7.31847e-21
-9.70981e-23  3.49181e-21 -7.31847e-21
-9.70981e-23  3.49181e-21 -7.31847e-21
-9.70981e-23  3.49181e-21 -7.31847e-21
-9.70981e-23  3.49181e-21 -7.31847e-21
-9.70981e-23  3.49181e-21 -7.31847e-21
-9.70981e-23  3.49181e-21 -7.31847e-21
-9.70981e-23  3.49181e-21 -7.31847e-21
-9.70981e-23  3.49181e-21 -7.31847e-21
-9.70981e-23  3.49181e-21 -7.31847e-21
-9.70981e-23  3.49181e-21 -7.31847e-21
-9.70981e-23  3.49181e-21 -7.31847e-21
-9.70981e-23  3.49181e-21 -7.31847e-21
-9.70981e-23  3.49181e-21 -7.31847e-21
-9.70981e-23  3.49181e-21 -7.31847e-21
-9.70981e-23  3.49181e-21 -7.31847e-21
-9.70981e-23  3.49181e-21 -7.31847e-21
-9.70981e-23  3.49181e-21 -7.31847e-21
-9.70981e-23  3.49181e-21 -7.31847e-21
-9.70981e-23  3.49181e-21 -7.31847e-21
-9.70981e-23  3.49181e-21 -7.31847e-21
-9.70981e-23  3.49181e-21 -7.31847e-21
-9.70981e-23  3.49181e-21 -7.31847e-21
-9.70981e-23  3.49181e-21 -7.31847e-21
-9.70981e-23  3.49181e-21 -7.31847e-21
-9.70981e-23  3.49181e-21 -7.31847e-21
-9.70981e-23  3.49181e-21 -7.31847e-21
-9.70981e-23  3.49181e-21 -7.31847e-21
-9.70981e-23  3.49181e-21 -7.31847e-21
-9.70981e-23  3.49181e-21 -7.31847e-21
-9.70981e-23  3.49181e-21 -7.31847e-21
-9.70981e-23  3.49181e-21 -7.31847e-21
-9.70981e-23  3.49181e-21 -7.31847e-21
-9.70981e-23  3.49181e-21 -7.31847e-21
-9.70981e-23  3.49181e-21 -7.31847e-21
-9.70981e-23  3.49181e-21 -7.31847e-21
-9.70981e-23  3.49181e-21 -7.31847e-21
-9.70981e-23  3.49181e-21 -7.31847e-21
-9.70981e-23  3.49181e-21 -7.31847e-21
-9.70981e-23  3.49181e-21 -7.31847e-21
-9.70981e-23  3.49181e-21 -7.31847e-21
-9.70981e-23  3.49181e-21 -7.31847e-21
-9.70981e-23  3.49181e-21 -7.31847e-21
-9.70981e-23  3.49181e-21 -7.31847e-21
-9.70981e-23  3.49181e-21 -7.31847e-21
-9.70981e-23  3.49181e-21 -7.31847e-21
-9.70981e-23  3.49181e-21 -7.31847e-21
-9.70981e-23  3.49181e-21 -7.31847e-21
-9.70981e-23  3.49181e-21 -7.31847e-21
-9.70981e-23  3.49181e-21 -7.31847e-21
-9.70981e-23  3.49181e-21 -7.31847e-21
-9.70981e-23  3.49181e-21 -7.31847e-21
-9.70981e-23  3.49181e-21 -7.31847e-21
-9.70981e-23  3.49181e-21 -7.31847e-21
-9.70981e-23  3.49181e-21 -7.31847e-21
-9.70981e-23  3.49181e-21 -7.31847e-21
-9.70981e-23  3.49181e-21 -7.31847e-21
-9.70981e-23  3.49181e-21 -7.31847e-21
-9.70981e-23  3.49181e-21 -7.31847e-21
-9.70981e-23  3.49181e-21 -7.31847e-21
-9.70981e-23  3.49181e-21 -7.31847e-21
-9.70981e-23  3.49181e-21 -7.31847e-21
-9.70981e-23  3.49181e-21 -7.31847e-21
-9.70981e-23  3.49181e-21 -7.31847e-21
-9.70981e-23  3.49181e-21 -7.31847e-21
-9.70981e-23  3.49181e-21 -7.31847e-21
-9.70981e-23  3.49181e-21 -7.31847e-21
-9.70981e-23  3.49181e-21 -7.31847e-21
-9.70981e-23  3.49181e-21 -7.31847e-21
-9.70981e-23  3.49181e-21 -7.31847e-21
-9.70981e-23  3.49181e-21 -7.31847e-21
-9.70981e-23  3.49181e-21 -7.31847e-21
-9.70981e-23  3.49181e-21 -7.31847e-21
-9.70981e-23  3.49181e-21 -7.31847e-21
-9.70981e-23  3.49181e-21 -7.31847e-21
-9.70981e-23  3.49181e-21 -7.31847e-21
-9.70981e-23  3.49181e-21 -7.31847e-21
-9.70981e-23  3.49181e-21 -7.31847e-21
-9.70981e-23  3.49181e-21 -7.31847e-21
-9.70981e-23  3.49181e-21 -7.31847e-21
-9.70981e-23  3.49181e-21 -7.31847e-21
-9.70981e-23  3.49181e-21 -7.31847e-21
-9.70981e-23  3.49181e-21 -7.31847e-21
-9.70981e-23  3.49181e-21 -7.31847e-21
-9.70981e-23  3.49181e-21 -7.31847e-21
 4.36321e-16  2.60681e-16 -4.03561e-15
-2.80212e-18 -3.87249e-19  5.61127e-20
6.74625e-20 4.98561e-21 4.60194e-21
-9.70981e-23  3.49181e-21 -7.31847e-21
-9.70981e-23  3.49181e-21 -7.31847e-21
-9.70981e-23  3.49181e-21 -7.31847e-21
-9.70981e-23  3.49181e-21 -7.31847e-21
-9.70981e-23  3.49181e-21 -7.31847e-21
-9.70981e-23  3.49181e-21 -7.31847e-21
-9.70981e-23  3.49181e-21 -7.31847e-21
-9.70981e-23  3.49181e-21 -7.31847e-21
-9.70981e-23  3.49181e-21 -7.31847e-21
-9.70981e-23  3.49181e-21 -7.31847e-21
-9.70981e-23  3.49181e-21 -7.31847e-21
-9.70981e-23  3.49181e-21 -7.31847e-21
-9.70981e-23  3.49181e-21 -7.31847e-21
-9.70981e-23  3.49181e-21 -7.31847e-21
-9.70981e-23  3.49181e-21 -7.31847e-21
-9.70981e-23  3.49181e-21 -7.31847e-21
-9.70981e-23  3.49181e-21 -7.31847e-21
-9.70981e-23  3.49181e-21 -7.31847e-21
-9.70981e-23  3.49181e-21 -7.31847e-21
-9.70981e-23  3.49181e-21 -7.31847e-21
-9.70981e-23  3.49181e-21 -7.31847e-21
-9.70981e-23  3.49181e-21 -7.31847e-21
-9.70981e-23  3.49181e-21 -7.31847e-21
-9.70981e-23  3.49181e-21 -7.31847e-21
-9.70981e-23  3.49181e-21 -7.31847e-21
-9.70981e-23  3.49181e-21 -7.31847e-21
-9.70981e-23  3.49181e-21 -7.31847e-21
-9.70981e-23  3.49181e-21 -7.31847e-21
-9.70981e-23  3.49181e-21 -7.31847e-21
-9.70981e-23  3.49181e-21 -7.31847e-21
-9.70981e-23  3.49181e-21 -7.31847e-21
-9.70981e-23  3.49181e-21 -7.31847e-21
-9.70981e-23  3.49181e-21 -7.31847e-21
-9.70981e-23  3.49181e-21 -7.31847e-21
-9.70981e-23  3.49181e-21 -7.31847e-21
-9.70981e-23  3.49181e-21 -7.31847e-21
-9.70981e-23  3.49181e-21 -7.31847e-21
-9.70981e-23  3.49181e-21 -7.31847e-21
-9.70981e-23  3.49181e-21 -7.31847e-21
-9.70981e-23  3.49181e-21 -7.31847e-21
-9.70981e-23  3.49181e-21 -7.31847e-21
-9.70981e-23  3.49181e-21 -7.31847e-21
-9.70981e-23  3.49181e-21 -7.31847e-21
-9.70981e-23  3.49181e-21 -7.31847e-21
-9.70981e-23  3.49181e-21 -7.31847e-21
-9.70981e-23  3.49181e-21 -7.31847e-21
-9.70981e-23  3.49181e-21 -7.31847e-21
-9.70981e-23  3.49181e-21 -7.31847e-21
-9.70981e-23  3.49181e-21 -7.31847e-21
-9.70981e-23  3.49181e-21 -7.31847e-21
-9.70981e-23  3.49181e-21 -7.31847e-21
-9.70981e-23  3.49181e-21 -7.31847e-21
-9.70981e-23  3.49181e-21 -7.31847e-21
-9.70981e-23  3.49181e-21 -7.31847e-21
-9.70981e-23  3.49181e-21 -7.31847e-21
-9.70981e-23  3.49181e-21 -7.31847e-21
-9.70981e-23  3.49181e-21 -7.31847e-21
-9.70981e-23  3.49181e-21 -7.31847e-21
-9.70981e-23  3.49181e-21 -7.31847e-21
-9.70981e-23  3.49181e-21 -7.31847e-21
-9.70981e-23  3.49181e-21 -7.31847e-21
-9.70981e-23  3.49181e-21 -7.31847e-21
-9.70981e-23  3.49181e-21 -7.31847e-21
-9.70981e-23  3.49181e-21 -7.31847e-21
-9.70981e-23  3.49181e-21 -7.31847e-21
-9.70981e-23  3.49181e-21 -7.31847e-21
-9.70981e-23  3.49181e-21 -7.31847e-21
-9.70981e-23  3.49181e-21 -7.31847e-21
-9.70981e-23  3.49181e-21 -7.31847e-21
-9.70981e-23  3.49181e-21 -7.31847e-21
-9.70981e-23  3.49181e-21 -7.31847e-21
-9.70981e-23  3.49181e-21 -7.31847e-21
-9.70981e-23  3.49181e-21 -7.31847e-21
-9.70981e-23  3.49181e-21 -7.31847e-21
-9.70981e-23  3.49181e-21 -7.31847e-21
-9.70981e-23  3.49181e-21 -7.31847e-21
-9.70981e-23  3.49181e-21 -7.31847e-21
-9.70981e-23  3.49181e-21 -7.31847e-21
-9.70981e-23  3.49181e-21 -7.31847e-21
-9.70981e-23  3.49181e-21 -7.31847e-21
-9.70981e-23  3.49181e-21 -7.31847e-21
-9.70981e-23  3.49181e-21 -7.31847e-21
-9.70981e-23  3.49181e-21 -7.31847e-21
-9.70981e-23  3.49181e-21 -7.31847e-21
-9.70981e-23  3.49181e-21 -7.31847e-21
-9.70981e-23  3.49181e-21 -7.31847e-21
-9.70981e-23  3.49181e-21 -7.31847e-21
-9.70981e-23  3.49181e-21 -7.31847e-21
-9.70981e-23  3.49181e-21 -7.31847e-21
-9.70981e-23  3.49181e-21 -7.31847e-21
-9.70981e-23  3.49181e-21 -7.31847e-21
-9.70981e-23  3.49181e-21 -7.31847e-21
-9.70981e-23  3.49181e-21 -7.31847e-21
-9.70981e-23  3.49181e-21 -7.31847e-21
-9.70981e-23  3.49181e-21 -7.31847e-21
-9.70981e-23  3.49181e-21 -7.31847e-21
-9.70981e-23  3.49181e-21 -7.31847e-21
-9.70981e-23  3.49181e-21 -7.31847e-21
-9.70981e-23  3.49181e-21 -7.31847e-21
-9.70981e-23  3.49181e-21 -7.31847e-21
-9.70981e-23  3.49181e-21 -7.31847e-21
-9.70981e-23  3.49181e-21 -7.31847e-21
-9.70981e-23  3.49181e-21 -7.31847e-21
-9.70981e-23  3.49181e-21 -7.31847e-21
-9.70981e-23  3.49181e-21 -7.31847e-21
 4.36321e-16  2.60681e-16 -4.03561e-15
-2.80212e-18 -3.87249e-19  5.61127e-20
6.74625e-20 4.98561e-21 4.60194e-21
-9.70981e-23  3.49181e-21 -7.31847e-21
-9.70981e-23  3.49181e-21 -7.31847e-21
-9.70981e-23  3.49181e-21 -7.31847e-21
-9.70981e-23  3.49181e-21 -7.31847e-21
-9.70981e-23  3.49181e-21 -7.31847e-21
-9.70981e-23  3.49181e-21 -7.31847e-21
-9.70981e-23  3.49181e-21 -7.31847e-21
-9.70981e-23  3.49181e-21 -7.31847e-21
-9.70981e-23  3.49181e-21 -7.31847e-21
-9.70981e-23  3.49181e-21 -7.31847e-21
-9.70981e-23  3.49181e-21 -7.31847e-21
-9.70981e-23  3.49181e-21 -7.31847e-21
-9.70981e-23  3.49181e-21 -7.31847e-21
-9.70981e-23  3.49181e-21 -7.31847e-21
-9.70981e-23  3.49181e-21 -7.31847e-21
-9.70981e-23  3.49181e-21 -7.31847e-21
-9.70981e-23  3.49181e-21 -7.31847e-21
-9.70981e-23  3.49181e-21 -7.31847e-21
-9.70981e-23  3.49181e-21 -7.31847e-21
-9.70981e-23  3.49181e-21 -7.31847e-21
-9.70981e-23  3.49181e-21 -7.31847e-21
-9.70981e-23  3.49181e-21 -7.31847e-21
-9.70981e-23  3.49181e-21 -7.31847e-21
-9.70981e-23  3.49181e-21 -7.31847e-21
-9.70981e-23  3.49181e-21 -7.31847e-21
-9.70981e-23  3.49181e-21 -7.31847e-21
-9.70981e-23  3.49181e-21 -7.31847e-21
-9.70981e-23  3.49181e-21 -7.31847e-21
-9.70981e-23  3.49181e-21 -7.31847e-21
-9.70981e-23  3.49181e-21 -7.31847e-21
-9.70981e-23  3.49181e-21 -7.31847e-21
-9.70981e-23  3.49181e-21 -7.31847e-21
-9.70981e-23  3.49181e-21 -7.31847e-21
-9.70981e-23  3.49181e-21 -7.31847e-21
-9.70981e-23  3.49181e-21 -7.31847e-21
-9.70981e-23  3.49181e-21 -7.31847e-21
-9.70981e-23  3.49181e-21 -7.31847e-21
-9.70981e-23  3.49181e-21 -7.31847e-21
-9.70981e-23  3.49181e-21 -7.31847e-21
-9.70981e-23  3.49181e-21 -7.31847e-21
-9.70981e-23  3.49181e-21 -7.31847e-21
-9.70981e-23  3.49181e-21 -7.31847e-21
-9.70981e-23  3.49181e-21 -7.31847e-21
-9.70981e-23  3.49181e-21 -7.31847e-21
-9.70981e-23  3.49181e-21 -7.31847e-21
-9.70981e-23  3.49181e-21 -7.31847e-21
-9.70981e-23  3.49181e-21 -7.31847e-21
-9.70981e-23  3.49181e-21 -7.31847e-21
-9.70981e-23  3.49181e-21 -7.31847e-21
-9.70981e-23  3.49181e-21 -7.31847e-21
-9.70981e-23  3.49181e-21 -7.31847e-21
-9.70981e-23  3.49181e-21 -7.31847e-21
-9.70981e-23  3.49181e-21 -7.31847e-21
-9.70981e-23  3.49181e-21 -7.31847e-21
-9.70981e-23  3.49181e-21 -7.31847e-21
-9.70981e-23  3.49181e-21 -7.31847e-21
-9.70981e-23  3.49181e-21 -7.31847e-21
-9.70981e-23  3.49181e-21 -7.31847e-21
-9.70981e-23  3.49181e-21 -7.31847e-21
-9.70981e-23  3.49181e-21 -7.31847e-21
-9.70981e-23  3.49181e-21 -7.31847e-21
-9.70981e-23  3.49181e-21 -7.31847e-21
-9.70981e-23  3.49181e-21 -7.31847e-21
-9.70981e-23  3.49181e-21 -7.31847e-21
-9.70981e-23  3.49181e-21 -7.31847e-21
-9.70981e-23  3.49181e-21 -7.31847e-21
-9.70981e-23  3.49181e-21 -7.31847e-21
-9.70981e-23  3.49181e-21 -7.31847e-21
-9.70981e-23  3.49181e-21 -7.31847e-21
-9.70981e-23  3.49181e-21 -7.31847e-21
-9.70981e-23  3.49181e-21 -7.31847e-21
-9.70981e-23  3.49181e-21 -7.31847e-21
-9.70981e-23  3.49181e-21 -7.31847e-21
-9.70981e-23  3.49181e-21 -7.31847e-21
-9.70981e-23  3.49181e-21 -7.31847e-21
-9.70981e-23  3.49181e-21 -7.31847e-21
-9.70981e-23  3.49181e-21 -7.31847e-21
-9.70981e-23  3.49181e-21 -7.31847e-21
-9.70981e-23  3.49181e-21 -7.31847e-21
-9.70981e-23  3.49181e-21 -7.31847e-21
-9.70981e-23  3.49181e-21 -7.31847e-21
-9.70981e-23  3.49181e-21 -7.31847e-21
-9.70981e-23  3.49181e-21 -7.31847e-21
-9.70981e-23  3.49181e-21 -7.31847e-21
-9.70981e-23  3.49181e-21 -7.31847e-21
-9.70981e-23  3.49181e-21 -7.31847e-21
-9.70981e-23  3.49181e-21 -7.31847e-21
-9.70981e-23  3.49181e-21 -7.31847e-21
-9.70981e-23  3.49181e-21 -7.31847e-21
-9.70981e-23  3.49181e-21 -7.31847e-21
-9.70981e-23  3.49181e-21 -7.31847e-21
-9.70981e-23  3.49181e-21 -7.31847e-21
-9.70981e-23  3.49181e-21 -7.31847e-21
-9.70981e-23  3.49181e-21 -7.31847e-21
-9.70981e-23  3.49181e-21 -7.31847e-21
-9.70981e-23  3.49181e-21 -7.31847e-21
-9.70981e-23  3.49181e-21 -7.31847e-21
-9.70981e-23  3.49181e-21 -7.31847e-21
-9.70981e-23  3.49181e-21 -7.31847e-21
-9.70981e-23  3.49181e-21 -7.31847e-21
-9.70981e-23  3.49181e-21 -7.31847e-21
-9.70981e-23  3.49181e-21 -7.31847e-21
-9.70981e-23  3.49181e-21 -7.31847e-21
-9.70981e-23  3.49181e-21 -7.31847e-21
-9.70981e-23  3.49181e-21 -7.31847e-21
 4.36321e-16  2.60681e-16 -4.03561e-15
-2.80212e-18 -3.87249e-19  5.61127e-20
6.74625e-20 4.98561e-21 4.60194e-21
-9.70981e-23  3.49181e-21 -7.31847e-21
-9.70981e-23  3.49181e-21 -7.31847e-21
-9.70981e-23  3.49181e-21 -7.31847e-21
-9.70981e-23  3.49181e-21 -7.31847e-21
-9.70981e-23  3.49181e-21 -7.31847e-21
-9.70981e-23  3.49181e-21 -7.31847e-21
-9.70981e-23  3.49181e-21 -7.31847e-21
-9.70981e-23  3.49181e-21 -7.31847e-21
-9.70981e-23  3.49181e-21 -7.31847e-21
-9.70981e-23  3.49181e-21 -7.31847e-21
-9.70981e-23  3.49181e-21 -7.31847e-21
-9.70981e-23  3.49181e-21 -7.31847e-21
-9.70981e-23  3.49181e-21 -7.31847e-21
-9.70981e-23  3.49181e-21 -7.31847e-21
-9.70981e-23  3.49181e-21 -7.31847e-21
-9.70981e-23  3.49181e-21 -7.31847e-21
-9.70981e-23  3.49181e-21 -7.31847e-21
-9.70981e-23  3.49181e-21 -7.31847e-21
-9.70981e-23  3.49181e-21 -7.31847e-21
-9.70981e-23  3.49181e-21 -7.31847e-21
-9.70981e-23  3.49181e-21 -7.31847e-21
-9.70981e-23  3.49181e-21 -7.31847e-21
-9.70981e-23  3.49181e-21 -7.31847e-21
-9.70981e-23  3.49181e-21 -7.31847e-21
-9.70981e-23  3.49181e-21 -7.31847e-21
-9.70981e-23  3.49181e-21 -7.31847e-21
-9.70981e-23  3.49181e-21 -7.31847e-21
-9.70981e-23  3.49181e-21 -7.31847e-21
-9.70981e-23  3.49181e-21 -7.31847e-21
-9.70981e-23  3.49181e-21 -7.31847e-21
-9.70981e-23  3.49181e-21 -7.31847e-21
-9.70981e-23  3.49181e-21 -7.31847e-21
-9.70981e-23  3.49181e-21 -7.31847e-21
-9.70981e-23  3.49181e-21 -7.31847e-21
-9.70981e-23  3.49181e-21 -7.31847e-21
-9.70981e-23  3.49181e-21 -7.31847e-21
-9.70981e-23  3.49181e-21 -7.31847e-21
-9.70981e-23  3.49181e-21 -7.31847e-21
-9.70981e-23  3.49181e-21 -7.31847e-21
-9.70981e-23  3.49181e-21 -7.31847e-21
-9.70981e-23  3.49181e-21 -7.31847e-21
-9.70981e-23  3.49181e-21 -7.31847e-21
-9.70981e-23  3.49181e-21 -7.31847e-21
-9.70981e-23  3.49181e-21 -7.31847e-21
-9.70981e-23  3.49181e-21 -7.31847e-21
-9.70981e-23  3.49181e-21 -7.31847e-21
-9.70981e-23  3.49181e-21 -7.31847e-21
-9.70981e-23  3.49181e-21 -7.31847e-21
-9.70981e-23  3.49181e-21 -7.31847e-21
-9.70981e-23  3.49181e-21 -7.31847e-21
-9.70981e-23  3.49181e-21 -7.31847e-21
-9.70981e-23  3.49181e-21 -7.31847e-21
-9.70981e-23  3.49181e-21 -7.31847e-21
-9.70981e-23  3.49181e-21 -7.31847e-21
-9.70981e-23  3.49181e-21 -7.31847e-21
-9.70981e-23  3.49181e-21 -7.31847e-21
-9.70981e-23  3.49181e-21 -7.31847e-21
-9.70981e-23  3.49181e-21 -7.31847e-21
-9.70981e-23  3.49181e-21 -7.31847e-21
-9.70981e-23  3.49181e-21 -7.31847e-21
-9.70981e-23  3.49181e-21 -7.31847e-21
-9.70981e-23  3.49181e-21 -7.31847e-21
-9.70981e-23  3.49181e-21 -7.31847e-21
-9.70981e-23  3.49181e-21 -7.31847e-21
-9.70981e-23  3.49181e-21 -7.31847e-21
-9.70981e-23  3.49181e-21 -7.31847e-21
-9.70981e-23  3.49181e-21 -7.31847e-21
-9.70981e-23  3.49181e-21 -7.31847e-21
-9.70981e-23  3.49181e-21 -7.31847e-21
-9.70981e-23  3.49181e-21 -7.31847e-21
-9.70981e-23  3.49181e-21 -7.31847e-21
-9.70981e-23  3.49181e-21 -7.31847e-21
-9.70981e-23  3.49181e-21 -7.31847e-21
-9.70981e-23  3.49181e-21 -7.31847e-21
-9.70981e-23  3.49181e-21 -7.31847e-21
-9.70981e-23  3.49181e-21 -7.31847e-21
-9.70981e-23  3.49181e-21 -7.31847e-21
-9.70981e-23  3.49181e-21 -7.31847e-21
-9.70981e-23  3.49181e-21 -7.31847e-21
-9.70981e-23  3.49181e-21 -7.31847e-21
-9.70981e-23  3.49181e-21 -7.31847e-21
-9.70981e-23  3.49181e-21 -7.31847e-21
-9.70981e-23  3.49181e-21 -7.31847e-21
-9.70981e-23  3.49181e-21 -7.31847e-21
-9.70981e-23  3.49181e-21 -7.31847e-21
-9.70981e-23  3.49181e-21 -7.31847e-21
-9.70981e-23  3.49181e-21 -7.31847e-21
-9.70981e-23  3.49181e-21 -7.31847e-21
-9.70981e-23  3.49181e-21 -7.31847e-21
-9.70981e-23  3.49181e-21 -7.31847e-21
-9.70981e-23  3.49181e-21 -7.31847e-21
-9.70981e-23  3.49181e-21 -7.31847e-21
-9.70981e-23  3.49181e-21 -7.31847e-21
-9.70981e-23  3.49181e-21 -7.31847e-21
-9.70981e-23  3.49181e-21 -7.31847e-21
-9.70981e-23  3.49181e-21 -7.31847e-21
-9.70981e-23  3.49181e-21 -7.31847e-21
-9.70981e-23  3.49181e-21 -7.31847e-21
-9.70981e-23  3.49181e-21 -7.31847e-21
-9.70981e-23  3.49181e-21 -7.31847e-21
-9.70981e-23  3.49181e-21 -7.31847e-21
-9.70981e-23  3.49181e-21 -7.31847e-21
-9.70981e-23  3.49181e-21 -7.31847e-21
-9.70981e-23  3.49181e-21 -7.31847e-21
-9.70981e-23  3.49181e-21 -7.31847e-21
 4.36321e-16  2.60681e-16 -4.03561e-15
-2.80212e-18 -3.87249e-19  5.61127e-20
6.74625e-20 4.98561e-21 4.60194e-21
-9.70981e-23  3.49181e-21 -7.31847e-21
-9.70981e-23  3.49181e-21 -7.31847e-21
-9.70981e-23  3.49181e-21 -7.31847e-21
-9.70981e-23  3.49181e-21 -7.31847e-21
-9.70981e-23  3.49181e-21 -7.31847e-21
-9.70981e-23  3.49181e-21 -7.31847e-21
-9.70981e-23  3.49181e-21 -7.31847e-21
-9.70981e-23  3.49181e-21 -7.31847e-21
-9.70981e-23  3.49181e-21 -7.31847e-21
-9.70981e-23  3.49181e-21 -7.31847e-21
-9.70981e-23  3.49181e-21 -7.31847e-21
-9.70981e-23  3.49181e-21 -7.31847e-21
-9.70981e-23  3.49181e-21 -7.31847e-21
-9.70981e-23  3.49181e-21 -7.31847e-21
-9.70981e-23  3.49181e-21 -7.31847e-21
-9.70981e-23  3.49181e-21 -7.31847e-21
-9.70981e-23  3.49181e-21 -7.31847e-21
-9.70981e-23  3.49181e-21 -7.31847e-21
-9.70981e-23  3.49181e-21 -7.31847e-21
-9.70981e-23  3.49181e-21 -7.31847e-21
-9.70981e-23  3.49181e-21 -7.31847e-21
-9.70981e-23  3.49181e-21 -7.31847e-21
-9.70981e-23  3.49181e-21 -7.31847e-21
-9.70981e-23  3.49181e-21 -7.31847e-21
-9.70981e-23  3.49181e-21 -7.31847e-21
-9.70981e-23  3.49181e-21 -7.31847e-21
-9.70981e-23  3.49181e-21 -7.31847e-21
-9.70981e-23  3.49181e-21 -7.31847e-21
-9.70981e-23  3.49181e-21 -7.31847e-21
-9.70981e-23  3.49181e-21 -7.31847e-21
-9.70981e-23  3.49181e-21 -7.31847e-21
-9.70981e-23  3.49181e-21 -7.31847e-21
-9.70981e-23  3.49181e-21 -7.31847e-21
-9.70981e-23  3.49181e-21 -7.31847e-21
-9.70981e-23  3.49181e-21 -7.31847e-21
-9.70981e-23  3.49181e-21 -7.31847e-21
-9.70981e-23  3.49181e-21 -7.31847e-21
-9.70981e-23  3.49181e-21 -7.31847e-21
-9.70981e-23  3.49181e-21 -7.31847e-21
-9.70981e-23  3.49181e-21 -7.31847e-21
-9.70981e-23  3.49181e-21 -7.31847e-21
-9.70981e-23  3.49181e-21 -7.31847e-21
-9.70981e-23  3.49181e-21 -7.31847e-21
-9.70981e-23  3.49181e-21 -7.31847e-21
-9.70981e-23  3.49181e-21 -7.31847e-21
-9.70981e-23  3.49181e-21 -7.31847e-21
-9.70981e-23  3.49181e-21 -7.31847e-21
-9.70981e-23  3.49181e-21 -7.31847e-21
-9.70981e-23  3.49181e-21 -7.31847e-21
-9.70981e-23  3.49181e-21 -7.31847e-21
-9.70981e-23  3.49181e-21 -7.31847e-21
-9.70981e-23  3.49181e-21 -7.31847e-21
-9.70981e-23  3.49181e-21 -7.31847e-21
-9.70981e-23  3.49181e-21 -7.31847e-21
-9.70981e-23  3.49181e-21 -7.31847e-21
-9.70981e-23  3.49181e-21 -7.31847e-21
-9.70981e-23  3.49181e-21 -7.31847e-21
-9.70981e-23  3.49181e-21 -7.31847e-21
-9.70981e-23  3.49181e-21 -7.31847e-21
-9.70981e-23  3.49181e-21 -7.31847e-21
-9.70981e-23  3.49181e-21 -7.31847e-21
-9.70981e-23  3.49181e-21 -7.31847e-21
-9.70981e-23  3.49181e-21 -7.31847e-21
-9.70981e-23  3.49181e-21 -7.31847e-21
-9.70981e-23  3.49181e-21 -7.31847e-21
-9.70981e-23  3.49181e-21 -7.31847e-21
-9.70981e-23  3.49181e-21 -7.31847e-21
-9.70981e-23  3.49181e-21 -7.31847e-21
-9.70981e-23  3.49181e-21 -7.31847e-21
-9.70981e-23  3.49181e-21 -7.31847e-21
-9.70981e-23  3.49181e-21 -7.31847e-21
-9.70981e-23  3.49181e-21 -7.31847e-21
-9.70981e-23  3.49181e-21 -7.31847e-21
-9.70981e-23  3.49181e-21 -7.31847e-21
-9.70981e-23  3.49181e-21 -7.31847e-21
-9.70981e-23  3.49181e-21 -7.31847e-21
-9.70981e-23  3.49181e-21 -7.31847e-21
-9.70981e-23  3.49181e-21 -7.31847e-21
-9.70981e-23  3.49181e-21 -7.31847e-21
-9.70981e-23  3.49181e-21 -7.31847e-21
-9.70981e-23  3.49181e-21 -7.31847e-21
-9.70981e-23  3.49181e-21 -7.31847e-21
-9.70981e-23  3.49181e-21 -7.31847e-21
-9.70981e-23  3.49181e-21 -7.31847e-21
-9.70981e-23  3.49181e-21 -7.31847e-21
-9.70981e-23  3.49181e-21 -7.31847e-21
-9.70981e-23  3.49181e-21 -7.31847e-21
-9.70981e-23  3.49181e-21 -7.31847e-21
-9.70981e-23  3.49181e-21 -7.31847e-21
-9.70981e-23  3.49181e-21 -7.31847e-21
-9.70981e-23  3.49181e-21 -7.31847e-21
-9.70981e-23  3.49181e-21 -7.31847e-21
-9.70981e-23  3.49181e-21 -7.31847e-21
-9.70981e-23  3.49181e-21 -7.31847e-21
-9.70981e-23  3.49181e-21 -7.31847e-21
-9.70981e-23  3.49181e-21 -7.31847e-21
-9.70981e-23  3.49181e-21 -7.31847e-21
-9.70981e-23  3.49181e-21 -7.31847e-21
-9.70981e-23  3.49181e-21 -7.31847e-21
-9.70981e-23  3.49181e-21 -7.31847e-21
-9.70981e-23  3.49181e-21 -7.31847e-21
-9.70981e-23  3.49181e-21 -7.31847e-21
-9.70981e-23  3.49181e-21 -7.31847e-21
-9.70981e-23  3.49181e-21 -7.31847e-21
-9.70981e-23  3.49181e-21 -7.31847e-21
 4.36321e-16  2.60681e-16 -4.03561e-15
-2.80212e-18 -3.87249e-19  5.61127e-20
6.74625e-20 4.98561e-21 4.60194e-21
-9.70981e-23  3.49181e-21 -7.31847e-21
-9.70981e-23  3.49181e-21 -7.31847e-21
-9.70981e-23  3.49181e-21 -7.31847e-21
-9.70981e-23  3.49181e-21 -7.31847e-21
-9.70981e-23  3.49181e-21 -7.31847e-21
-9.70981e-23  3.49181e-21 -7.31847e-21
-9.70981e-23  3.49181e-21 -7.31847e-21
-9.70981e-23  3.49181e-21 -7.31847e-21
-9.70981e-23  3.49181e-21 -7.31847e-21
-9.70981e-23  3.49181e-21 -7.31847e-21
-9.70981e-23  3.49181e-21 -7.31847e-21
-9.70981e-23  3.49181e-21 -7.31847e-21
-9.70981e-23  3.49181e-21 -7.31847e-21
-9.70981e-23  3.49181e-21 -7.31847e-21
-9.70981e-23  3.49181e-21 -7.31847e-21
-9.70981e-23  3.49181e-21 -7.31847e-21
-9.70981e-23  3.49181e-21 -7.31847e-21
-9.70981e-23  3.49181e-21 -7.31847e-21
-9.70981e-23  3.49181e-21 -7.31847e-21
-9.70981e-23  3.49181e-21 -7.31847e-21
-9.70981e-23  3.49181e-21 -7.31847e-21
-9.70981e-23  3.49181e-21 -7.31847e-21
-9.70981e-23  3.49181e-21 -7.31847e-21
-9.70981e-23  3.49181e-21 -7.31847e-21
-9.70981e-23  3.49181e-21 -7.31847e-21
-9.70981e-23  3.49181e-21 -7.31847e-21
-9.70981e-23  3.49181e-21 -7.31847e-21
-9.70981e-23  3.49181e-21 -7.31847e-21
-9.70981e-23  3.49181e-21 -7.31847e-21
-9.70981e-23  3.49181e-21 -7.31847e-21
-9.70981e-23  3.49181e-21 -7.31847e-21
-9.70981e-23  3.49181e-21 -7.31847e-21
-9.70981e-23  3.49181e-21 -7.31847e-21
-9.70981e-23  3.49181e-21 -7.31847e-21
-9.70981e-23  3.49181e-21 -7.31847e-21
-9.70981e-23  3.49181e-21 -7.31847e-21
-9.70981e-23  3.49181e-21 -7.31847e-21
-9.70981e-23  3.49181e-21 -7.31847e-21
-9.70981e-23  3.49181e-21 -7.31847e-21
-9.70981e-23  3.49181e-21 -7.31847e-21
-9.70981e-23  3.49181e-21 -7.31847e-21
-9.70981e-23  3.49181e-21 -7.31847e-21
-9.70981e-23  3.49181e-21 -7.31847e-21
-9.70981e-23  3.49181e-21 -7.31847e-21
-9.70981e-23  3.49181e-21 -7.31847e-21
-9.70981e-23  3.49181e-21 -7.31847e-21
-9.70981e-23  3.49181e-21 -7.31847e-21
-9.70981e-23  3.49181e-21 -7.31847e-21
-9.70981e-23  3.49181e-21 -7.31847e-21
-9.70981e-23  3.49181e-21 -7.31847e-21
-9.70981e-23  3.49181e-21 -7.31847e-21
-9.70981e-23  3.49181e-21 -7.31847e-21
-9.70981e-23  3.49181e-21 -7.31847e-21
-9.70981e-23  3.49181e-21 -7.31847e-21
-9.70981e-23  3.49181e-21 -7.31847e-21
-9.70981e-23  3.49181e-21 -7.31847e-21
-9.70981e-23  3.49181e-21 -7.31847e-21
-9.70981e-23  3.49181e-21 -7.31847e-21
-9.70981e-23  3.49181e-21 -7.31847e-21
-9.70981e-23  3.49181e-21 -7.31847e-21
-9.70981e-23  3.49181e-21 -7.31847e-21
-9.70981e-23  3.49181e-21 -7.31847e-21
-9.70981e-23  3.49181e-21 -7.31847e-21
-9.70981e-23  3.49181e-21 -7.31847e-21
-9.70981e-23  3.49181e-21 -7.31847e-21
-9.70981e-23  3.49181e-21 -7.31847e-21
-9.70981e-23  3.49181e-21 -7.31847e-21
-9.70981e-23  3.49181e-21 -7.31847e-21
-9.70981e-23  3.49181e-21 -7.31847e-21
-9.70981e-23  3.49181e-21 -7.31847e-21
-9.70981e-23  3.49181e-21 -7.31847e-21
-9.70981e-23  3.49181e-21 -7.31847e-21
-9.70981e-23  3.49181e-21 -7.31847e-21
-9.70981e-23  3.49181e-21 -7.31847e-21
-9.70981e-23  3.49181e-21 -7.31847e-21
-9.70981e-23  3.49181e-21 -7.31847e-21
-9.70981e-23  3.49181e-21 -7.31847e-21
-9.70981e-23  3.49181e-21 -7.31847e-21
-9.70981e-23  3.49181e-21 -7.31847e-21
-9.70981e-23  3.49181e-21 -7.31847e-21
-9.70981e-23  3.49181e-21 -7.31847e-21
-9.70981e-23  3.49181e-21 -7.31847e-21
-9.70981e-23  3.49181e-21 -7.31847e-21
-9.70981e-23  3.49181e-21 -7.31847e-21
-9.70981e-23  3.49181e-21 -7.31847e-21
-9.70981e-23  3.49181e-21 -7.31847e-21
-9.70981e-23  3.49181e-21 -7.31847e-21
-9.70981e-23  3.49181e-21 -7.31847e-21
-9.70981e-23  3.49181e-21 -7.31847e-21
-9.70981e-23  3.49181e-21 -7.31847e-21
-9.70981e-23  3.49181e-21 -7.31847e-21
-9.70981e-23  3.49181e-21 -7.31847e-21
-9.70981e-23  3.49181e-21 -7.31847e-21
-9.70981e-23  3.49181e-21 -7.31847e-21
-9.70981e-23  3.49181e-21 -7.31847e-21
 4.36321e-16  2.60681e-16 -4.03561e-15
-2.80212e-18 -3.87249e-19  5.61127e-20
6.74625e-20 4.98561e-21 4.60194e-21
-9.70981e-23  3.49181e-21 -7.31847e-21
-9.70981e-23  3.49181e-21 -7.31847e-21
-9.70981e-23  3.49181e-21 -7.31847e-21
-9.70981e-23  3.49181e-21 -7.31847e-21
-9.70981e-23  3.49181e-21 -7.31847e-21
-9.70981e-23  3.49181e-21 -7.31847e-21
-9.70981e-23  3.49181e-21 -7.31847e-21
-9.70981e-23  3.49181e-21 -7.31847e-21
-9.70981e-23  3.49181e-21 -7.31847e-21
-9.70981e-23  3.49181e-21 -7.31847e-21
-9.70981e-23  3.49181e-21 -7.31847e-21
-9.70981e-23  3.49181e-21 -7.31847e-21
-9.70981e-23  3.49181e-21 -7.31847e-21
-9.70981e-23  3.49181e-21 -7.31847e-21
-9.70981e-23  3.49181e-21 -7.31847e-21
-9.70981e-23  3.49181e-21 -7.31847e-21
-9.70981e-23  3.49181e-21 -7.31847e-21
-9.70981e-23  3.49181e-21 -7.31847e-21
-9.70981e-23  3.49181e-21 -7.31847e-21
-9.70981e-23  3.49181e-21 -7.31847e-21
-9.70981e-23  3.49181e-21 -7.31847e-21
-9.70981e-23  3.49181e-21 -7.31847e-21
-9.70981e-23  3.49181e-21 -7.31847e-21
-9.70981e-23  3.49181e-21 -7.31847e-21
-9.70981e-23  3.49181e-21 -7.31847e-21
-9.70981e-23  3.49181e-21 -7.31847e-21
-9.70981e-23  3.49181e-21 -7.31847e-21
-9.70981e-23  3.49181e-21 -7.31847e-21
-9.70981e-23  3.49181e-21 -7.31847e-21
-9.70981e-23  3.49181e-21 -7.31847e-21
-9.70981e-23  3.49181e-21 -7.31847e-21
-9.70981e-23  3.49181e-21 -7.31847e-21
-9.70981e-23  3.49181e-21 -7.31847e-21
-9.70981e-23  3.49181e-21 -7.31847e-21
-9.70981e-23  3.49181e-21 -7.31847e-21
-9.70981e-23  3.49181e-21 -7.31847e-21
-9.70981e-23  3.49181e-21 -7.31847e-21
-9.70981e-23  3.49181e-21 -7.31847e-21
-9.70981e-23  3.49181e-21 -7.31847e-21
-9.70981e-23  3.49181e-21 -7.31847e-21
-9.70981e-23  3.49181e-21 -7.31847e-21
-9.70981e-23  3.49181e-21 -7.31847e-21
-9.70981e-23  3.49181e-21 -7.31847e-21
-9.70981e-23  3.49181e-21 -7.31847e-21
-9.70981e-23  3.49181e-21 -7.31847e-21
-9.70981e-23  3.49181e-21 -7.31847e-21
-9.70981e-23  3.49181e-21 -7.31847e-21
-9.70981e-23  3.49181e-21 -7.31847e-21
-9.70981e-23  3.49181e-21 -7.31847e-21
-9.70981e-23  3.49181e-21 -7.31847e-21
-9.70981e-23  3.49181e-21 -7.31847e-21
-9.70981e-23  3.49181e-21 -7.31847e-21
-9.70981e-23  3.49181e-21 -7.31847e-21
-9.70981e-23  3.49181e-21 -7.31847e-21
-9.70981e-23  3.49181e-21 -7.31847e-21
-9.70981e-23  3.49181e-21 -7.31847e-21
-9.70981e-23  3.49181e-21 -7.31847e-21
-9.70981e-23  3.49181e-21 -7.31847e-21
-9.70981e-23  3.49181e-21 -7.31847e-21
-9.70981e-23  3.49181e-21 -7.31847e-21
-9.70981e-23  3.49181e-21 -7.31847e-21
-9.70981e-23  3.49181e-21 -7.31847e-21
-9.70981e-23  3.49181e-21 -7.31847e-21
-9.70981e-23  3.49181e-21 -7.31847e-21
-9.70981e-23  3.49181e-21 -7.31847e-21
-9.70981e-23  3.49181e-21 -7.31847e-21
-9.70981e-23  3.49181e-21 -7.31847e-21
-9.70981e-23  3.49181e-21 -7.31847e-21
-9.70981e-23  3.49181e-21 -7.31847e-21
-9.70981e-23  3.49181e-21 -7.31847e-21
-9.70981e-23  3.49181e-21 -7.31847e-21
-9.70981e-23  3.49181e-21 -7.31847e-21
-9.70981e-23  3.49181e-21 -7.31847e-21
-9.70981e-23  3.49181e-21 -7.31847e-21
-9.70981e-23  3.49181e-21 -7.31847e-21
-9.70981e-23  3.49181e-21 -7.31847e-21
-9.70981e-23  3.49181e-21 -7.31847e-21
-9.70981e-23  3.49181e-21 -7.31847e-21
-9.70981e-23  3.49181e-21 -7.31847e-21
-9.70981e-23  3.49181e-21 -7.31847e-21
-9.70981e-23  3.49181e-21 -7.31847e-21
-9.70981e-23  3.49181e-21 -7.31847e-21
-9.70981e-23  3.49181e-21 -7.31847e-21
-9.70981e-23  3.49181e-21 -7.31847e-21
-9.70981e-23  3.49181e-21 -7.31847e-21
-9.70981e-23  3.49181e-21 -7.31847e-21
-9.70981e-23  3.49181e-21 -7.31847e-21
-9.70981e-23  3.49181e-21 -7.31847e-21
-9.70981e-23  3.49181e-21 -7.31847e-21
-9.70981e-23  3.49181e-21 -7.31847e-21
-9.70981e-23  3.49181e-21 -7.31847e-21
-9.70981e-23  3.49181e-21 -7.31847e-21
-9.70981e-23  3.49181e-21 -7.31847e-21
-9.70981e-23  3.49181e-21 -7.31847e-21
-9.70981e-23  3.49181e-21 -7.31847e-21
 4.36321e-16  2.60681e-16 -4.03561e-15
 6.22892e-18  8.76393e-20 -2.72265e-19
 -6.2743e-20 -8.98461e-20    1.299e-20
5.32642e-20 8.21174e-21 2.74051e-21
5.32642e-20 8.21174e-21 2.74051e-21
5.32642e-20 8.21174e-21 2.74051e-21
 4.36321e-16  2.60681e-16 -4.03561e-15
1.48822e-18 8.51239e-19 4.69023e-19
-3.85255e-20  1.90971e-20  5.77501e-20
 2.08119e-20 -3.26672e-21 -5.04184e-21
 4.36321e-16  2.60681e-16 -4.03561e-15
-2.80212e-18 -3.87249e-19  5.61127e-20
1.47124e-19 5.68939e-20 1.00308e-20
-1.84426e-20  4.84952e-20 -2.18719e-20
-1.84426e-20  4.84952e-20 -2.18719e-20
-1.84426e-20  4.84952e-20 -2.18719e-20
 4.36321e-16  2.60681e-16 -4.03561e-15
 4.12679e-18  6.95591e-20 -2.34029e-19
 5.87992e-20 -2.86121e-20  7.54901e-21
 -2.2711e-21 -4.33147e-20  1.02243e-20
 -2.2711e-21 -4.33147e-20  1.02243e-20
 -2.2711e-21 -4.33147e-20  1.02243e-20
 4.36321e-16  2.60681e-16 -4.03561e-15
-2.80212e-18 -3.87249e-19  5.61127e-20
6.74625e-20 4.98561e-21 4.60194e-21
-9.70981e-23  3.49181e-21 -7.31847e-21
-9.70981e-23  3.49181e-21 -7.31847e-21
-9.70981e-23  3.49181e-21 -7.31847e-21
-9.70981e-23  3.49181e-21 -7.31847e-21
-9.70981e-23  3.49181e-21 -7.31847e-21
-9.70981e-23  3.49181e-21 -7.31847e-21
-9.70981e-23  3.49181e-21 -7.31847e-21
-9.70981e-23  3.49181e-21 -7.31847e-21
-9.70981e-23  3.49181e-21 -7.31847e-21
-9.70981e-23  3.49181e-21 -7.31847e-21
-9.70981e-23  3.49181e-21 -7.31847e-21
-9.70981e-23  3.49181e-21 -7.31847e-21
-9.70981e-23  3.49181e-21 -7.31847e-21
-9.70981e-23  3.49181e-21 -7.31847e-21
-9.70981e-23  3.49181e-21 -7.31847e-21
-9.70981e-23  3.49181e-21 -7.31847e-21
-9.70981e-23  3.49181e-21 -7.31847e-21
-9.70981e-23  3.49181e-21 -7.31847e-21
-9.70981e-23  3.49181e-21 -7.31847e-21
-9.70981e-23  3.49181e-21 -7.31847e-21
-9.70981e-23  3.49181e-21 -7.31847e-21
-9.70981e-23  3.49181e-21 -7.31847e-21
-9.70981e-23  3.49181e-21 -7.31847e-21
-9.70981e-23  3.49181e-21 -7.31847e-21
-9.70981e-23  3.49181e-21 -7.31847e-21
-9.70981e-23  3.49181e-21 -7.31847e-21
-9.70981e-23  3.49181e-21 -7.31847e-21
-9.70981e-23  3.49181e-21 -7.31847e-21
-9.70981e-23  3.49181e-21 -7.31847e-21
-9.70981e-23  3.49181e-21 -7.31847e-21
-9.70981e-23  3.49181e-21 -7.31847e-21
-9.70981e-23  3.49181e-21 -7.31847e-21
-9.70981e-23  3.49181e-21 -7.31847e-21
-9.70981e-23  3.49181e-21 -7.31847e-21
-9.70981e-23  3.49181e-21 -7.31847e-21
-9.70981e-23  3.49181e-21 -7.31847e-21
-9.70981e-23  3.49181e-21 -7.31847e-21
-9.70981e-23  3.49181e-21 -7.31847e-21
-9.70981e-23  3.49181e-21 -7.31847e-21
-9.70981e-23  3.49181e-21 -7.31847e-21
-9.70981e-23  3.49181e-21 -7.31847e-21
-9.70981e-23  3.49181e-21 -7.31847e-21
-9.70981e-23  3.49181e-21 -7.31847e-21
-9.70981e-23  3.49181e-21 -7.31847e-21
-9.70981e-23  3.49181e-21 -7.31847e-21
-9.70981e-23  3.49181e-21 -7.31847e-21
-9.70981e-23  3.49181e-21 -7.31847e-21
-9.70981e-23  3.49181e-21 -7.31847e-21
-9.70981e-23  3.49181e-21 -7.31847e-21
-9.70981e-23  3.49181e-21 -7.31847e-21
-9.70981e-23  3.49181e-21 -7.31847e-21
-9.70981e-23  3.49181e-21 -7.31847e-21
-9.70981e-23  3.49181e-21 -7.31847e-21
-9.70981e-23  3.49181e-21 -7.31847e-21
-9.70981e-23  3.49181e-21 -7.31847e-21
-9.70981e-23  3.49181e-21 -7.31847e-21
-9.70981e-23  3.49181e-21 -7.31847e-21
-9.70981e-23  3.49181e-21 -7.31847e-21
-9.70981e-23  3.49181e-21 -7.31847e-21
-9.70981e-23  3.49181e-21 -7.31847e-21
-9.70981e-23  3.49181e-21 -7.31847e-21
-9.70981e-23  3.49181e-21 -7.31847e-21
-9.70981e-23  3.49181e-21 -7.31847e-21
-9.70981e-23  3.49181e-21 -7.31847e-21
-9.70981e-23  3.49181e-21 -7.31847e-21
-9.70981e-23  3.49181e-21 -7.31847e-21
-9.70981e-23  3.49181e-21 -7.31847e-21
-9.70981e-23  3.49181e-21 -7.31847e-21
-9.70981e-23  3.49181e-21 -7.31847e-21
-9.70981e-23  3.49181e-21 -7.31847e-21
-9.70981e-23  3.49181e-21 -7.31847e-21
-9.70981e-23  3.49181e-21 -7.31847e-21
-9.70981e-23  3.49181e-21 -7.31847e-21
-9.70981e-23  3.49181e-21 -7.31847e-21
-9.70981e-23  3.49181e-21 -7.31847e-21
-9.70981e-23  3.49181e-21 -7.31847e-21
-9.70981e-23  3.49181e-21 -7.31847e-21
-9.70981e-23  3.49181e-21 -7.31847e-21
-9.70981e-23  3.49181e-21 -7.31847e-21
-9.70981e-23  3.49181e-21 -7.31847e-21
-9.70981e-23  3.49181e-21 -7.31847e-21
-9.70981e-23  3.49181e-21 -7.31847e-21
-9.70981e-23  3.49181e-21 -7.31847e-21
-9.70981e-23  3.49181e-21 -7.31847e-21
-9.70981e-23  3.49181e-21 -7.31847e-21
-9.70981e-23  3.49181e-21 -7.31847e-21
-9.70981e-23  3.49181e-21 -7.31847e-21
-9.70981e-23  3.49181e-21 -7.31847e-21
-9.70981e-23  3.49181e-21 -7.31847e-21
-9.70981e-23  3.49181e-21 -7.31847e-21
-9.70981e-23  3.49181e-21 -7.31847e-21
-9.70981e-23  3.49181e-21 -7.31847e-21
-9.70981e-23  3.49181e-21 -7.31847e-21
-9.70981e-23  3.49181e-21 -7.31847e-21
-9.70981e-23  3.49181e-21 -7.31847e-21
-9.70981e-23  3.49181e-21 -7.31847e-21
-9.70981e-23  3.49181e-21 -7.31847e-21
-9.70981e-23  3.49181e-21 -7.31847e-21
-9.70981e-23  3.49181e-21 -7.31847e-21
-9.70981e-23  3.49181e-21 -7.31847e-21
-9.70981e-23  3.49181e-21 -7.31847e-21
-9.70981e-23  3.49181e-21 -7.31847e-21
-9.70981e-23  3.49181e-21 -7.31847e-21
-9.70981e-23  3.49181e-21 -7.31847e-21
-9.70981e-23  3.49181e-21 -7.31847e-21
 4.36321e-16  2.60681e-16 -4.03561e-15
-2.80212e-18 -3.87249e-19  5.61127e-20
6.74625e-20 4.98561e-21 4.60194e-21
-9.70981e-23  3.49181e-21 -7.31847e-21
-9.70981e-23  3.49181e-21 -7.31847e-21
-9.70981e-23  3.49181e-21 -7.31847e-21
-9.70981e-23  3.49181e-21 -7.31847e-21
-9.70981e-23  3.49181e-21 -7.31847e-21
-9.70981e-23  3.49181e-21 -7.31847e-21
-9.70981e-23  3.49181e-21 -7.31847e-21
-9.70981e-23  3.49181e-21 -7.31847e-21
-9.70981e-23  3.49181e-21 -7.31847e-21
-9.70981e-23  3.49181e-21 -7.31847e-21
-9.70981e-23  3.49181e-21 -7.31847e-21
-9.70981e-23  3.49181e-21 -7.31847e-21
-9.70981e-23  3.49181e-21 -7.31847e-21
-9.70981e-23  3.49181e-21 -7.31847e-21
-9.70981e-23  3.49181e-21 -7.31847e-21
-9.70981e-23  3.49181e-21 -7.31847e-21
-9.70981e-23  3.49181e-21 -7.31847e-21
-9.70981e-23  3.49181e-21 -7.31847e-21
-9.70981e-23  3.49181e-21 -7.31847e-21
-9.70981e-23  3.49181e-21 -7.31847e-21
-9.70981e-23  3.49181e-21 -7.31847e-21
-9.70981e-23  3.49181e-21 -7.31847e-21
-9.70981e-23  3.49181e-21 -7.31847e-21
-9.70981e-23  3.49181e-21 -7.31847e-21
-9.70981e-23  3.49181e-21 -7.31847e-21
-9.70981e-23  3.49181e-21 -7.31847e-21
-9.70981e-23  3.49181e-21 -7.31847e-21
-9.70981e-23  3.49181e-21 -7.31847e-21
-9.70981e-23  3.49181e-21 -7.31847e-21
-9.70981e-23  3.49181e-21 -7.31847e-21
-9.70981e-23  3.49181e-21 -7.31847e-21
-9.70981e-23  3.49181e-21 -7.31847e-21
-9.70981e-23  3.49181e-21 -7.31847e-21
-9.70981e-23  3.49181e-21 -7.31847e-21
-9.70981e-23  3.49181e-21 -7.31847e-21
-9.70981e-23  3.49181e-21 -7.31847e-21
-9.70981e-23  3.49181e-21 -7.31847e-21
-9.70981e-23  3.49181e-21 -7.31847e-21
-9.70981e-23  3.49181e-21 -7.31847e-21
-9.70981e-23  3.49181e-21 -7.31847e-21
-9.70981e-23  3.49181e-21 -7.31847e-21
-9.70981e-23  3.49181e-21 -7.31847e-21
-9.70981e-23  3.49181e-21 -7.31847e-21
-9.70981e-23  3.49181e-21 -7.31847e-21
-9.70981e-23  3.49181e-21 -7.31847e-21
-9.70981e-23  3.49181e-21 -7.31847e-21
-9.70981e-23  3.49181e-21 -7.31847e-21
-9.70981e-23  3.49181e-21 -7.31847e-21
-9.70981e-23  3.49181e-21 -7.31847e-21
-9.70981e-23  3.49181e-21 -7.31847e-21
-9.70981e-23  3.49181e-21 -7.31847e-21
-9.70981e-23  3.49181e-21 -7.31847e-21
-9.70981e-23  3.49181e-21 -7.31847e-21
-9.70981e-23  3.49181e-21 -7.31847e-21
-9.70981e-23  3.49181e-21 -7.31847e-21
-9.70981e-23  3.49181e-21 -7.31847e-21
-9.70981e-23  3.49181e-21 -7.31847e-21
-9.70981e-23  3.49181e-21 -7.31847e-21
-9.70981e-23  3.49181e-21 -7.31847e-21
-9.70981e-23  3.49181e-21 -7.31847e-21
-9.70981e-23  3.49181e-21 -7.31847e-21
-9.70981e-23  3.49181e-21 -7.31847e-21
-9.70981e-23  3.49181e-21 -7.31847e-21
-9.70981e-23  3.49181e-21 -7.31847e-21
-9.70981e-23  3.49181e-21 -7.31847e-21
-9.70981e-23  3.49181e-21 -7.31847e-21
-9.70981e-23  3.49181e-21 -7.31847e-21
-9.70981e-23  3.49181e-21 -7.31847e-21
-9.70981e-23  3.49181e-21 -7.31847e-21
-9.70981e-23  3.49181e-21 -7.31847e-21
-9.70981e-23  3.49181e-21 -7.31847e-21
-9.70981e-23  3.49181e-21 -7.31847e-21
-9.70981e-23  3.49181e-21 -7.31847e-21
-9.70981e-23  3.49181e-21 -7.31847e-21
-9.70981e-23  3.49181e-21 -7.31847e-21
-9.70981e-23  3.49181e-21 -7.31847e-21
-9.70981e-23  3.49181e-21 -7.31847e-21
-9.70981e-23  3.49181e-21 -7.31847e-21
-9.70981e-23  3.49181e-21 -7.31847e-21
-9.70981e-23  3.49181e-21 -7.31847e-21
-9.70981e-23  3.49181e-21 -7.31847e-21
-9.70981e-23  3.49181e-21 -7.31847e-21
-9.70981e-23  3.49181e-21 -7.31847e-21
-9.70981e-23  3.49181e-21 -7.31847e-21
-9.70981e-23  3.49181e-21 -7.31847e-21
-9.70981e-23  3.49181e-21 -7.31847e-21
-9.70981e-23  3.49181e-21 -7.31847e-21
-9.70981e-23  3.49181e-21 -7.31847e-21
-9.70981e-23  3.49181e-21 -7.31847e-21
-9.70981e-23  3.49181e-21 -7.31847e-21
-9.70981e-23  3.49181e-21 -7.31847e-21
-9.70981e-23  3.49181e-21 -7.31847e-21
-9.70981e-23  3.49181e-21 -7.31847e-21
-9.70981e-23  3.49181e-21 -7.31847e-21
-9.70981e-23  3.49181e-21 -7.31847e-21
-9.70981e-23  3.49181e-21 -7.31847e-21
-9.70981e-23  3.49181e-21 -7.31847e-21
-9.70981e-23  3.49181e-21 -7.31847e-21
-9.70981e-23  3.49181e-21 -7.31847e-21
-9.70981e-23  3.49181e-21 -7.31847e-21
-9.70981e-23  3.49181e-21 -7.31847e-21
-9.70981e-23  3.49181e-21 -7.31847e-21
-9.70981e-23  3.49181e-21 -7.31847e-21
-9.70981e-23  3.49181e-21 -7.31847e-21
-9.70981e-23  3.49181e-21 -7.31847e-21
 4.36321e-16  2.60681e-16 -4.03561e-15
-2.80212e-18 -3.87249e-19  5.61127e-20
6.74625e-20 4.98561e-21 4.60194e-21
-9.70981e-23  3.49181e-21 -7.31847e-21
-9.70981e-23  3.49181e-21 -7.31847e-21
-9.70981e-23  3.49181e-21 -7.31847e-21
-9.70981e-23  3.49181e-21 -7.31847e-21
-9.70981e-23  3.49181e-21 -7.31847e-21
-9.70981e-23  3.49181e-21 -7.31847e-21
-9.70981e-23  3.49181e-21 -7.31847e-21
-9.70981e-23  3.49181e-21 -7.31847e-21
-9.70981e-23  3.49181e-21 -7.31847e-21
-9.70981e-23  3.49181e-21 -7.31847e-21
-9.70981e-23  3.49181e-21 -7.31847e-21
-9.70981e-23  3.49181e-21 -7.31847e-21
-9.70981e-23  3.49181e-21 -7.31847e-21
-9.70981e-23  3.49181e-21 -7.31847e-21
-9.70981e-23  3.49181e-21 -7.31847e-21
-9.70981e-23  3.49181e-21 -7.31847e-21
-9.70981e-23  3.49181e-21 -7.31847e-21
-9.70981e-23  3.49181e-21 -7.31847e-21
-9.70981e-23  3.49181e-21 -7.31847e-21
-9.70981e-23  3.49181e-21 -7.31847e-21
-9.70981e-23  3.49181e-21 -7.31847e-21
-9.70981e-23  3.49181e-21 -7.31847e-21
-9.70981e-23  3.49181e-21 -7.31847e-21
-9.70981e-23  3.49181e-21 -7.31847e-21
-9.70981e-23  3.49181e-21 -7.31847e-21
-9.70981e-23  3.49181e-21 -7.31847e-21
-9.70981e-23  3.49181e-21 -7.31847e-21
-9.70981e-23  3.49181e-21 -7.31847e-21
-9.70981e-23  3.49181e-21 -7.31847e-21
-9.70981e-23  3.49181e-21 -7.31847e-21
-9.70981e-23  3.49181e-21 -7.31847e-21
-9.70981e-23  3.49181e-21 -7.31847e-21
-9.70981e-23  3.49181e-21 -7.31847e-21
-9.70981e-23  3.49181e-21 -7.31847e-21
-9.70981e-23  3.49181e-21 -7.31847e-21
-9.70981e-23  3.49181e-21 -7.31847e-21
-9.70981e-23  3.49181e-21 -7.31847e-21
-9.70981e-23  3.49181e-21 -7.31847e-21
-9.70981e-23  3.49181e-21 -7.31847e-21
-9.70981e-23  3.49181e-21 -7.31847e-21
-9.70981e-23  3.49181e-21 -7.31847e-21
-9.70981e-23  3.49181e-21 -7.31847e-21
-9.70981e-23  3.49181e-21 -7.31847e-21
-9.70981e-23  3.49181e-21 -7.31847e-21
-9.70981e-23  3.49181e-21 -7.31847e-21
-9.70981e-23  3.49181e-21 -7.31847e-21
-9.70981e-23  3.49181e-21 -7.31847e-21
-9.70981e-23  3.49181e-21 -7.31847e-21
-9.70981e-23  3.49181e-21 -7.31847e-21
-9.70981e-23  3.49181e-21 -7.31847e-21
-9.70981e-23  3.49181e-21 -7.31847e-21
-9.70981e-23  3.49181e-21 -7.31847e-21
-9.70981e-23  3.49181e-21 -7.31847e-21
-9.70981e-23  3.49181e-21 -7.31847e-21
-9.70981e-23  3.49181e-21 -7.31847e-21
-9.70981e-23  3.49181e-21 -7.31847e-21
-9.70981e-23  3.49181e-21 -7.31847e-21
-9.70981e-23  3.49181e-21 -7.31847e-21
-9.70981e-23  3.49181e-21 -7.31847e-21
-9.70981e-23  3.49181e-21 -7.31847e-21
-9.70981e-23  3.49181e-21 -7.31847e-21
-9.70981e-23  3.49181e-21 -7.31847e-21
-9.70981e-23  3.49181e-21 -7.31847e-21
-9.70981e-23  3.49181e-21 -7.31847e-21
-9.70981e-23  3.49181e-21 -7.31847e-21
-9.70981e-23  3.49181e-21 -7.31847e-21
-9.70981e-23  3.49181e-21 -7.31847e-21
-9.70981e-23  3.49181e-21 -7.31847e-21
-9.70981e-23  3.49181e-21 -7.31847e-21
-9.70981e-23  3.49181e-21 -7.31847e-21
-9.70981e-23  3.49181e-21 -7.31847e-21
-9.70981e-23  3.49181e-21 -7.31847e-21
-9.70981e-23  3.49181e-21 -7.31847e-21
-9.70981e-23  3.49181e-21 -7.31847e-21
-9.70981e-23  3.49181e-21 -7.31847e-21
-9.70981e-23  3.49181e-21 -7.31847e-21
-9.70981e-23  3.49181e-21 -7.31847e-21
-9.70981e-23  3.49181e-21 -7.31847e-21
-9.70981e-23  3.49181e-21 -7.31847e-21
-9.70981e-23  3.49181e-21 -7.31847e-21
-9.70981e-23  3.49181e-21 -7.31847e-21
-9.70981e-23  3.49181e-21 -7.31847e-21
-9.70981e-23  3.49181e-21 -7.31847e-21
-9.70981e-23  3.49181e-21 -7.31847e-21
-9.70981e-23  3.49181e-21 -7.31847e-21
-9.70981e-23  3.49181e-21 -7.31847e-21
-9.70981e-23  3.49181e-21 -7.31847e-21
-9.70981e-23  3.49181e-21 -7.31847e-21
-9.70981e-23  3.49181e-21 -7.31847e-21
-9.70981e-23  3.49181e-21 -7.31847e-21
-9.70981e-23  3.49181e-21 -7.31847e-21
-9.70981e-23  3.49181e-21 -7.31847e-21
-9.70981e-23  3.49181e-21 -7.31847e-21
-9.70981e-23  3.49181e-21 -7.31847e-21
-9.70981e-23  3.49181e-21 -7.31847e-21
-9.70981e-23  3.49181e-21 -7.31847e-21
-9.70981e-23  3.49181e-21 -7.31847e-21
-9.70981e-23  3.49181e-21 -7.31847e-21
-9.70981e-23  3.49181e-21 -7.31847e-21
-9.70981e-23  3.49181e-21 -7.31847e-21
-9.70981e-23  3.49181e-21 -7.31847e-21
-9.70981e-23  3.49181e-21 -7.31847e-21
-9.70981e-23  3.49181e-21 -7.31847e-21
-9.70981e-23  3.49181e-21 -7.31847e-21
-9.70981e-23  3.49181e-21 -7.31847e-21
 4.36321e-16  2.60681e-16 -4.03561e-15
-2.80212e-18 -3.87249e-19  5.61127e-20
6.74625e-20 4.98561e-21 4.60194e-21
-9.70981e-23  3.49181e-21 -7.31847e-21
-9.70981e-23  3.49181e-21 -7.31847e-21
-9.70981e-23  3.49181e-21 -7.31847e-21
-9.70981e-23  3.49181e-21 -7.31847e-21
-9.70981e-23  3.49181e-21 -7.31847e-21
-9.70981e-23  3.49181e-21 -7.31847e-21
-9.70981e-23  3.49181e-21 -7.31847e-21
-9.70981e-23  3.49181e-21 -7.31847e-21
-9.70981e-23  3.49181e-21 -7.31847e-21
-9.70981e-23  3.49181e-21 -7.31847e-21
-9.70981e-23  3.49181e-21 -7.31847e-21
-9.70981e-23  3.49181e-21 -7.31847e-21
-9.70981e-23  3.49181e-21 -7.31847e-21
-9.70981e-23  3.49181e-21 -7.31847e-21
-9.70981e-23  3.49181e-21 -7.31847e-21
-9.70981e-23  3.49181e-21 -7.31847e-21
-9.70981e-23  3.49181e-21 -7.31847e-21
-9.70981e-23  3.49181e-21 -7.31847e-21
-9.70981e-23  3.49181e-21 -7.31847e-21
-9.70981e-23  3.49181e-21 -7.31847e-21
-9.70981e-23  3.49181e-21 -7.31847e-21
-9.70981e-23  3.49181e-21 -7.31847e-21
-9.70981e-23  3.49181e-21 -7.31847e-21
-9.70981e-23  3.49181e-21 -7.31847e-21
-9.70981e-23  3.49181e-21 -7.31847e-21
-9.70981e-23  3.49181e-21 -7.31847e-21
-9.70981e-23  3.49181e-21 -7.31847e-21
-9.70981e-23  3.49181e-21 -7.31847e-21
-9.70981e-23  3.49181e-21 -7.31847e-21
-9.70981e-23  3.49181e-21 -7.31847e-21
-9.70981e-23  3.49181e-21 -7.31847e-21
-9.70981e-23  3.49181e-21 -7.31847e-21
-9.70981e-23  3.49181e-21 -7.31847e-21
-9.70981e-23  3.49181e-21 -7.31847e-21
-9.70981e-23  3.49181e-21 -7.31847e-21
-9.70981e-23  3.49181e-21 -7.31847e-21
-9.70981e-23  3.49181e-21 -7.31847e-21
-9.70981e-23  3.49181e-21 -7.31847e-21
-9.70981e-23  3.49181e-21 -7.31847e-21
-9.70981e-23  3.49181e-21 -7.31847e-21
-9.70981e-23  3.49181e-21 -7.31847e-21
-9.70981e-23  3.49181e-21 -7.31847e-21
-9.70981e-23  3.49181e-21 -7.31847e-21
-9.70981e-23  3.49181e-21 -7.31847e-21
-9.70981e-23  3.49181e-21 -7.31847e-21
-9.70981e-23  3.49181e-21 -7.31847e-21
-9.70981e-23  3.49181e-21 -7.31847e-21
-9.70981e-23  3.49181e-21 -7.31847e-21
-9.70981e-23  3.49181e-21 -7.31847e-21
-9.70981e-23  3.49181e-21 -7.31847e-21
-9.70981e-23  3.49181e-21 -7.31847e-21
-9.70981e-23  3.49181e-21 -7.31847e-21
-9.70981e-23  3.49181e-21 -7.31847e-21
-9.70981e-23  3.49181e-21 -7.31847e-21
-9.70981e-23  3.49181e-21 -7.31847e-21
-9.70981e-23  3.49181e-21 -7.31847e-21
-9.70981e-23  3.49181e-21 -7.31847e-21
-9.70981e-23  3.49181e-21 -7.31847e-21
-9.70981e-23  3.49181e-21 -7.31847e-21
-9.70981e-23  3.49181e-21 -7.31847e-21
-9.70981e-23  3.49181e-21 -7.31847e-21
-9.70981e-23  3.49181e-21 -7.31847e-21
-9.70981e-23  3.49181e-21 -7.31847e-21
-9.70981e-23  3.49181e-21 -7.31847e-21
-9.70981e-23  3.49181e-21 -7.31847e-21
-9.70981e-23  3.49181e-21 -7.31847e-21
-9.70981e-23  3.49181e-21 -7.31847e-21
-9.70981e-23  3.49181e-21 -7.31847e-21
-9.70981e-23  3.49181e-21 -7.31847e-21
-9.70981e-23  3.49181e-21 -7.31847e-21
-9.70981e-23  3.49181e-21 -7.31847e-21
-9.70981e-23  3.49181e-21 -7.31847e-21
-9.70981e-23  3.49181e-21 -7.31847e-21
-9.70981e-23  3.49181e-21 -7.31847e-21
-9.70981e-23  3.49181e-21 -7.31847e-21
-9.70981e-23  3.49181e-21 -7.31847e-21
-9.70981e-23  3.49181e-21 -7.31847e-21
-9.70981e-23  3.49181e-21 -7.31847e-21
-9.70981e-23  3.49181e-21 -7.31847e-21
-9.70981e-23  3.49181e-21 -7.31847e-21
-9.70981e-23  3.49181e-21 -7.31847e-21
-9.70981e-23  3.49181e-21 -7.31847e-21
-9.70981e-23  3.49181e-21 -7.31847e-21
-9.70981e-23  3.49181e-21 -7.31847e-21
-9.70981e-23  3.49181e-21 -7.31847e-21
-9.70981e-23  3.49181e-21 -7.31847e-21
-9.70981e-23  3.49181e-21 -7.31847e-21
-9.70981e-23  3.49181e-21 -7.31847e-21
-9.70981e-23  3.49181e-21 -7.31847e-21
-9.70981e-23  3.49181e-21 -7.31847e-21
-9.70981e-23  3.49181e-21 -7.31847e-21
-9.70981e-23  3.49181e-21 -7.31847e-21
-9.70981e-23  3.49181e-21 -7.31847e-21
-9.70981e-23  3.49181e-21 -7.31847e-21
-9.70981e-23  3.49181e-21 -7.31847e-21
-9.70981e-23  3.49181e-21 -7.31847e-21
-9.70981e-23  3.49181e-21 -7.31847e-21
-9.70981e-23  3.49181e-21 -7.31847e-21
-9.70981e-23  3.49181e-21 -7.31847e-21
-9.70981e-23  3.49181e-21 -7.31847e-21
-9.70981e-23  3.49181e-21 -7.31847e-21
-9.70981e-23  3.49181e-21 -7.31847e-21
-9.70981e-23  3.49181e-21 -7.31847e-21
-9.70981e-23  3.49181e-21 -7.31847e-21
-9.70981e-23  3.49181e-21 -7.31847e-21
 4.36321e-16  2.60681e-16 -4.03561e-15
-2.80212e-18 -3.87249e-19  5.61127e-20
6.74625e-20 4.98561e-21 4.60194e-21
-9.70981e-23  3.49181e-21 -7.31847e-21
-9.70981e-23  3.49181e-21 -7.31847e-21
-9.70981e-23  3.49181e-21 -7.31847e-21
-9.70981e-23  3.49181e-21 -7.31847e-21
-9.70981e-23  3.49181e-21 -7.31847e-21
-9.70981e-23  3.49181e-21 -7.31847e-21
-9.70981e-23  3.49181e-21 -7.31847e-21
-9.70981e-23  3.49181e-21 -7.31847e-21
-9.70981e-23  3.49181e-21 -7.31847e-21
-9.70981e-23  3.49181e-21 -7.31847e-21
-9.70981e-23  3.49181e-21 -7.31847e-21
-9.70981e-23  3.49181e-21 -7.31847e-21
-9.70981e-23  3.49181e-21 -7.31847e-21
-9.70981e-23  3.49181e-21 -7.31847e-21
-9.70981e-23  3.49181e-21 -7.31847e-21
-9.70981e-23  3.49181e-21 -7.31847e-21
-9.70981e-23  3.49181e-21 -7.31847e-21
-9.70981e-23  3.49181e-21 -7.31847e-21
-9.70981e-23  3.49181e-21 -7.31847e-21
-9.70981e-23  3.49181e-21 -7.31847e-21
-9.70981e-23  3.49181e-21 -7.31847e-21
-9.70981e-23  3.49181e-21 -7.31847e-21
-9.70981e-23  3.49181e-21 -7.31847e-21
-9.70981e-23  3.49181e-21 -7.31847e-21
-9.70981e-23  3.49181e-21 -7.31847e-21
-9.70981e-23  3.49181e-21 -7.31847e-21
-9.70981e-23  3.49181e-21 -7.31847e-21
-9.70981e-23  3.49181e-21 -7.31847e-21
-9.70981e-23  3.49181e-21 -7.31847e-21
-9.70981e-23  3.49181e-21 -7.31847e-21
-9.70981e-23  3.49181e-21 -7.31847e-21
-9.70981e-23  3.49181e-21 -7.31847e-21
-9.70981e-23  3.49181e-21 -7.31847e-21
-9.70981e-23  3.49181e-21 -7.31847e-21
-9.70981e-23  3.49181e-21 -7.31847e-21
-9.70981e-23  3.49181e-21 -7.31847e-21
-9.70981e-23  3.49181e-21 -7.31847e-21
-9.70981e-23  3.49181e-21 -7.31847e-21
-9.70981e-23  3.49181e-21 -7.31847e-21
-9.70981e-23  3.49181e-21 -7.31847e-21
-9.70981e-23  3.49181e-21 -7.31847e-21
-9.70981e-23  3.49181e-21 -7.31847e-21
-9.70981e-23  3.49181e-21 -7.31847e-21
-9.70981e-23  3.49181e-21 -7.31847e-21
-9.70981e-23  3.49181e-21 -7.31847e-21
-9.70981e-23  3.49181e-21 -7.31847e-21
-9.70981e-23  3.49181e-21 -7.31847e-21
-9.70981e-23  3.49181e-21 -7.31847e-21
-9.70981e-23  3.49181e-21 -7.31847e-21
-9.70981e-23  3.49181e-21 -7.31847e-21
-9.70981e-23  3.49181e-21 -7.31847e-21
-9.70981e-23  3.49181e-21 -7.31847e-21
-9.70981e-23  3.49181e-21 -7.31847e-21
-9.70981e-23  3.49181e-21 -7.31847e-21
-9.70981e-23  3.49181e-21 -7.31847e-21
-9.70981e-23  3.49181e-21 -7.31847e-21
-9.70981e-23  3.49181e-21 -7.31847e-21
-9.70981e-23  3.49181e-21 -7.31847e-21
-9.70981e-23  3.49181e-21 -7.31847e-21
-9.70981e-23  3.49181e-21 -7.31847e-21
-9.70981e-23  3.49181e-21 -7.31847e-21
-9.70981e-23  3.49181e-21 -7.31847e-21
-9.70981e-23  3.49181e-21 -7.31847e-21
-9.70981e-23  3.49181e-21 -7.31847e-21
-9.70981e-23  3.49181e-21 -7.31847e-21
-9.70981e-23  3.49181e-21 -7.31847e-21
-9.70981e-23  3.49181e-21 -7.31847e-21
-9.70981e-23  3.49181e-21 -7.31847e-21
-9.70981e-23  3.49181e-21 -7.31847e-21
-9.70981e-23  3.49181e-21 -7.31847e-21
-9.70981e-23  3.49181e-21 -7.31847e-21
-9.70981e-23  3.49181e-21 -7.31847e-21
-9.70981e-23  3.49181e-21 -7.31847e-21
-9.70981e-23  3.49181e-21 -7.31847e-21
-9.70981e-23  3.49181e-21 -7.31847e-21
-9.70981e-23  3.49181e-21 -7.31847e-21
-9.70981e-23  3.49181e-21 -7.31847e-21
-9.70981e-23  3.49181e-21 -7.31847e-21
-9.70981e-23  3.49181e-21 -7.31847e-21
-9.70981e-23  3.49181e-21 -7.31847e-21
-9.70981e-23  3.49181e-21 -7.31847e-21
-9.70981e-23  3.49181e-21 -7.31847e-21
-9.70981e-23  3.49181e-21 -7.31847e-21
-9.70981e-23  3.49181e-21 -7.31847e-21
-9.70981e-23  3.49181e-21 -7.31847e-21
-9.70981e-23  3.49181e-21 -7.31847e-21
-9.70981e-23  3.49181e-21 -7.31847e-21
-9.70981e-23  3.49181e-21 -7.31847e-21
-9.70981e-23  3.49181e-21 -7.31847e-21
-9.70981e-23  3.49181e-21 -7.31847e-21
-9.70981e-23  3.49181e-21 -7.31847e-21
-9.70981e-23  3.49181e-21 -7.31847e-21
-9.70981e-23  3.49181e-21 -7.31847e-21
-9.70981e-23  3.49181e-21 -7.31847e-21
-9.70981e-23  3.49181e-21 -7.31847e-21
-9.70981e-23  3.49181e-21 -7.31847e-21
-9.70981e-23  3.49181e-21 -7.31847e-21
-9.70981e-23  3.49181e-21 -7.31847e-21
-9.70981e-23  3.49181e-21 -7.31847e-21
-9.70981e-23  3.49181e-21 -7.31847e-21
-9.70981e-23  3.49181e-21 -7.31847e-21
-9.70981e-23  3.49181e-21 -7.31847e-21
-9.70981e-23  3.49181e-21 -7.31847e-21
-9.70981e-23  3.49181e-21 -7.31847e-21
-9.70981e-23  3.49181e-21 -7.31847e-21
 4.36321e-16  2.60681e-16 -4.03561e-15
-2.80212e-18 -3.87249e-19  5.61127e-20
6.74625e-20 4.98561e-21 4.60194e-21
-9.70981e-23  3.49181e-21 -7.31847e-21
-9.70981e-23  3.49181e-21 -7.31847e-21
-9.70981e-23  3.49181e-21 -7.31847e-21
-9.70981e-23  3.49181e-21 -7.31847e-21
-9.70981e-23  3.49181e-21 -7.31847e-21
-9.70981e-23  3.49181e-21 -7.31847e-21
-9.70981e-23  3.49181e-21 -7.31847e-21
-9.70981e-23  3.49181e-21 -7.31847e-21
-9.70981e-23  3.49181e-21 -7.31847e-21
-9.70981e-23  3.49181e-21 -7.31847e-21
-9.70981e-23  3.49181e-21 -7.31847e-21
-9.70981e-23  3.49181e-21 -7.31847e-21
-9.70981e-23  3.49181e-21 -7.31847e-21
-9.70981e-23  3.49181e-21 -7.31847e-21
-9.70981e-23  3.49181e-21 -7.31847e-21
-9.70981e-23  3.49181e-21 -7.31847e-21
-9.70981e-23  3.49181e-21 -7.31847e-21
-9.70981e-23  3.49181e-21 -7.31847e-21
-9.70981e-23  3.49181e-21 -7.31847e-21
-9.70981e-23  3.49181e-21 -7.31847e-21
-9.70981e-23  3.49181e-21 -7.31847e-21
-9.70981e-23  3.49181e-21 -7.31847e-21
-9.70981e-23  3.49181e-21 -7.31847e-21
-9.70981e-23  3.49181e-21 -7.31847e-21
-9.70981e-23  3.49181e-21 -7.31847e-21
-9.70981e-23  3.49181e-21 -7.31847e-21
-9.70981e-23  3.49181e-21 -7.31847e-21
-9.70981e-23  3.49181e-21 -7.31847e-21
-9.70981e-23  3.49181e-21 -7.31847e-21
-9.70981e-23  3.49181e-21 -7.31847e-21
-9.70981e-23  3.49181e-21 -7.31847e-21
-9.70981e-23  3.49181e-21 -7.31847e-21
-9.70981e-23  3.49181e-21 -7.31847e-21
-9.70981e-23  3.49181e-21 -7.31847e-21
-9.70981e-23  3.49181e-21 -7.31847e-21
-9.70981e-23  3.49181e-21 -7.31847e-21
-9.70981e-23  3.49181e-21 -7.31847e-21
-9.70981e-23  3.49181e-21 -7.31847e-21
-9.70981e-23  3.49181e-21 -7.31847e-21
-9.70981e-23  3.49181e-21 -7.31847e-21
-9.70981e-23  3.49181e-21 -7.31847e-21
-9.70981e-23  3.49181e-21 -7.31847e-21
-9.70981e-23  3.49181e-21 -7.31847e-21
-9.70981e-23  3.49181e-21 -7.31847e-21
-9.70981e-23  3.49181e-21 -7.31847e-21
-9.70981e-23  3.49181e-21 -7.31847e-21
-9.70981e-23  3.49181e-21 -7.31847e-21
-9.70981e-23  3.49181e-21 -7.31847e-21
-9.70981e-23  3.49181e-21 -7.31847e-21
-9.70981e-23  3.49181e-21 -7.31847e-21
-9.70981e-23  3.49181e-21 -7.31847e-21
-9.70981e-23  3.49181e-21 -7.31847e-21
-9.70981e-23  3.49181e-21 -7.31847e-21
-9.70981e-23  3.49181e-21 -7.31847e-21
-9.70981e-23  3.49181e-21 -7.31847e-21
-9.70981e-23  3.49181e-21 -7.31847e-21
-9.70981e-23  3.49181e-21 -7.31847e-21
-9.70981e-23  3.49181e-21 -7.31847e-21
-9.70981e-23  3.49181e-21 -7.31847e-21
-9.70981e-23  3.49181e-21 -7.31847e-21
-9.70981e-23  3.49181e-21 -7.31847e-21
-9.70981e-23  3.49181e-21 -7.31847e-21
-9.70981e-23  3.49181e-21 -7.31847e-21
-9.70981e-23  3.49181e-21 -7.31847e-21
-9.70981e-23  3.49181e-21 -7.31847e-21
-9.70981e-23  3.49181e-21 -7.31847e-21
-9.70981e-23  3.49181e-21 -7.31847e-21
-9.70981e-23  3.49181e-21 -7.31847e-21
-9.70981e-23  3.49181e-21 -7.31847e-21
-9.70981e-23  3.49181e-21 -7.31847e-21
-9.70981e-23  3.49181e-21 -7.31847e-21
-9.70981e-23  3.49181e-21 -7.31847e-21
-9.70981e-23  3.49181e-21 -7.31847e-21
-9.70981e-23  3.49181e-21 -7.31847e-21
-9.70981e-23  3.49181e-21 -7.31847e-21
-9.70981e-23  3.49181e-21 -7.31847e-21
-9.70981e-23  3.49181e-21 -7.31847e-21
-9.70981e-23  3.49181e-21 -7.31847e-21
-9.70981e-23  3.49181e-21 -7.31847e-21
-9.70981e-23  3.49181e-21 -7.31847e-21
-9.70981e-23  3.49181e-21 -7.31847e-21
-9.70981e-23  3.49181e-21 -7.31847e-21
-9.70981e-23  3.49181e-21 -7.31847e-21
-9.70981e-23  3.49181e-21 -7.31847e-21
-9.70981e-23  3.49181e-21 -7.31847e-21
-9.70981e-23  3.49181e-21 -7.31847e-21
-9.70981e-23  3.49181e-21 -7.31847e-21
-9.70981e-23  3.49181e-21 -7.31847e-21
-9.70981e-23  3.49181e-21 -7.31847e-21
-9.70981e-23  3.49181e-21 -7.31847e-21
-9.70981e-23  3.49181e-21 -7.31847e-21
-9.70981e-23  3.49181e-21 -7.31847e-21
-9.70981e-23  3.49181e-21 -7.31847e-21
-9.70981e-23  3.49181e-21 -7.31847e-21
-9.70981e-23  3.49181e-21 -7.31847e-21
-9.70981e-23  3.49181e-21 -7.31847e-21
-9.70981e-23  3.49181e-21 -7.31847e-21
-9.70981e-23  3.49181e-21 -7.31847e-21
-9.70981e-23  3.49181e-21 -7.31847e-21
-9.70981e-23  3.49181e-21 -7.31847e-21
-9.70981e-23  3.49181e-21 -7.31847e-21
-9.70981e-23  3.49181e-21 -7.31847e-21
-9.70981e-23  3.49181e-21 -7.31847e-21
-9.70981e-23  3.49181e-21 -7.31847e-21
-9.70981e-23  3.49181e-21 -7.31847e-21
 4.36321e-16  2.60681e-16 -4.03561e-15
-2.80212e-18 -3.87249e-19  5.61127e-20
6.74625e-20 4.98561e-21 4.60194e-21
-9.70981e-23  3.49181e-21 -7.31847e-21
-9.70981e-23  3.49181e-21 -7.31847e-21
-9.70981e-23  3.49181e-21 -7.31847e-21
-9.70981e-23  3.49181e-21 -7.31847e-21
-9.70981e-23  3.49181e-21 -7.31847e-21
-9.70981e-23  3.49181e-21 -7.31847e-21
-9.70981e-23  3.49181e-21 -7.31847e-21
-9.70981e-23  3.49181e-21 -7.31847e-21
-9.70981e-23  3.49181e-21 -7.31847e-21
-9.70981e-23  3.49181e-21 -7.31847e-21
-9.70981e-23  3.49181e-21 -7.31847e-21
-9.70981e-23  3.49181e-21 -7.31847e-21
-9.70981e-23  3.49181e-21 -7.31847e-21
-9.70981e-23  3.49181e-21 -7.31847e-21
-9.70981e-23  3.49181e-21 -7.31847e-21
-9.70981e-23  3.49181e-21 -7.31847e-21
-9.70981e-23  3.49181e-21 -7.31847e-21
-9.70981e-23  3.49181e-21 -7.31847e-21
-9.70981e-23  3.49181e-21 -7.31847e-21
-9.70981e-23  3.49181e-21 -7.31847e-21
-9.70981e-23  3.49181e-21 -7.31847e-21
-9.70981e-23  3.49181e-21 -7.31847e-21
-9.70981e-23  3.49181e-21 -7.31847e-21
-9.70981e-23  3.49181e-21 -7.31847e-21
-9.70981e-23  3.49181e-21 -7.31847e-21
-9.70981e-23  3.49181e-21 -7.31847e-21
-9.70981e-23  3.49181e-21 -7.31847e-21
-9.70981e-23  3.49181e-21 -7.31847e-21
-9.70981e-23  3.49181e-21 -7.31847e-21
-9.70981e-23  3.49181e-21 -7.31847e-21
-9.70981e-23  3.49181e-21 -7.31847e-21
-9.70981e-23  3.49181e-21 -7.31847e-21
-9.70981e-23  3.49181e-21 -7.31847e-21
-9.70981e-23  3.49181e-21 -7.31847e-21
-9.70981e-23  3.49181e-21 -7.31847e-21
-9.70981e-23  3.49181e-21 -7.31847e-21
-9.70981e-23  3.49181e-21 -7.31847e-21
-9.70981e-23  3.49181e-21 -7.31847e-21
-9.70981e-23  3.49181e-21 -7.31847e-21
-9.70981e-23  3.49181e-21 -7.31847e-21
-9.70981e-23  3.49181e-21 -7.31847e-21
-9.70981e-23  3.49181e-21 -7.31847e-21
-9.70981e-23  3.49181e-21 -7.31847e-21
-9.70981e-23  3.49181e-21 -7.31847e-21
-9.70981e-23  3.49181e-21 -7.31847e-21
-9.70981e-23  3.49181e-21 -7.31847e-21
-9.70981e-23  3.49181e-21 -7.31847e-21
-9.70981e-23  3.49181e-21 -7.31847e-21
-9.70981e-23  3.49181e-21 -7.31847e-21
-9.70981e-23  3.49181e-21 -7.31847e-21
-9.70981e-23  3.49181e-21 -7.31847e-21
-9.70981e-23  3.49181e-21 -7.31847e-21
-9.70981e-23  3.49181e-21 -7.31847e-21
-9.70981e-23  3.49181e-21 -7.31847e-21
-9.70981e-23  3.49181e-21 -7.31847e-21
-9.70981e-23  3.49181e-21 -7.31847e-21
-9.70981e-23  3.49181e-21 -7.31847e-21
-9.70981e-23  3.49181e-21 -7.31847e-21
-9.70981e-23  3.49181e-21 -7.31847e-21
-9.70981e-23  3.49181e-21 -7.31847e-21
-9.70981e-23  3.49181e-21 -7.31847e-21
-9.70981e-23  3.49181e-21 -7.31847e-21
-9.70981e-23  3.49181e-21 -7.31847e-21
-9.70981e-23  3.49181e-21 -7.31847e-21
-9.70981e-23  3.49181e-21 -7.31847e-21
-9.70981e-23  3.49181e-21 -7.31847e-21
-9.70981e-23  3.49181e-21 -7.31847e-21
-9.70981e-23  3.49181e-21 -7.31847e-21
-9.70981e-23  3.49181e-21 -7.31847e-21
-9.70981e-23  3.49181e-21 -7.31847e-21
-9.70981e-23  3.49181e-21 -7.31847e-21
-9.70981e-23  3.49181e-21 -7.31847e-21
-9.70981e-23  3.49181e-21 -7.31847e-21
-9.70981e-23  3.49181e-21 -7.31847e-21
-9.70981e-23  3.49181e-21 -7.31847e-21
-9.70981e-23  3.49181e-21 -7.31847e-21
-9.70981e-23  3.49181e-21 -7.31847e-21
-9.70981e-23  3.49181e-21 -7.31847e-21
-9.70981e-23  3.49181e-21 -7.31847e-21
-9.70981e-23  3.49181e-21 -7.31847e-21
-9.70981e-23  3.49181e-21 -7.31847e-21
-9.70981e-23  3.49181e-21 -7.31847e-21
-9.70981e-23  3.49181e-21 -7.31847e-21
-9.70981e-23  3.49181e-21 -7.31847e-21
-9.70981e-23  3.49181e-21 -7.31847e-21
-9.70981e-23  3.49181e-21 -7.31847e-21
-9.70981e-23  3.49181e-21 -7.31847e-21
-9.70981e-23  3.49181e-21 -7.31847e-21
-9.70981e-23  3.49181e-21 -7.31847e-21
-9.70981e-23  3.49181e-21 -7.31847e-21
-9.70981e-23  3.49181e-21 -7.31847e-21
-9.70981e-23  3.49181e-21 -7.31847e-21
-9.70981e-23  3.49181e-21 -7.31847e-21
-9.70981e-23  3.49181e-21 -7.31847e-21
-9.70981e-23  3.49181e-21 -7.31847e-21
-9.70981e-23  3.49181e-21 -7.31847e-21
-9.70981e-23  3.49181e-21 -7.31847e-21
-9.70981e-23  3.49181e-21 -7.31847e-21
-9.70981e-23  3.49181e-21 -7.31847e-21
-9.70981e-23  3.49181e-21 -7.31847e-21
-9.70981e-23  3.49181e-21 -7.31847e-21
-9.70981e-23  3.49181e-21 -7.31847e-21
-9.70981e-23  3.49181e-21 -7.31847e-21
-9.70981e-23  3.49181e-21 -7.31847e-21
-9.70981e-23  3.49181e-21 -7.31847e-21
 4.36321e-16  2.60681e-16 -4.03561e-15
-2.80212e-18 -3.87249e-19  5.61127e-20
6.74625e-20 4.98561e-21 4.60194e-21
-9.70981e-23  3.49181e-21 -7.31847e-21
-9.70981e-23  3.49181e-21 -7.31847e-21
-9.70981e-23  3.49181e-21 -7.31847e-21
-9.70981e-23  3.49181e-21 -7.31847e-21
-9.70981e-23  3.49181e-21 -7.31847e-21
-9.70981e-23  3.49181e-21 -7.31847e-21
-9.70981e-23  3.49181e-21 -7.31847e-21
-9.70981e-23  3.49181e-21 -7.31847e-21
-9.70981e-23  3.49181e-21 -7.31847e-21
-9.70981e-23  3.49181e-21 -7.31847e-21
-9.70981e-23  3.49181e-21 -7.31847e-21
-9.70981e-23  3.49181e-21 -7.31847e-21
-9.70981e-23  3.49181e-21 -7.31847e-21
-9.70981e-23  3.49181e-21 -7.31847e-21
-9.70981e-23  3.49181e-21 -7.31847e-21
-9.70981e-23  3.49181e-21 -7.31847e-21
-9.70981e-23  3.49181e-21 -7.31847e-21
-9.70981e-23  3.49181e-21 -7.31847e-21
-9.70981e-23  3.49181e-21 -7.31847e-21
-9.70981e-23  3.49181e-21 -7.31847e-21
-9.70981e-23  3.49181e-21 -7.31847e-21
-9.70981e-23  3.49181e-21 -7.31847e-21
-9.70981e-23  3.49181e-21 -7.31847e-21
-9.70981e-23  3.49181e-21 -7.31847e-21
-9.70981e-23  3.49181e-21 -7.31847e-21
-9.70981e-23  3.49181e-21 -7.31847e-21
-9.70981e-23  3.49181e-21 -7.31847e-21
-9.70981e-23  3.49181e-21 -7.31847e-21
-9.70981e-23  3.49181e-21 -7.31847e-21
-9.70981e-23  3.49181e-21 -7.31847e-21
-9.70981e-23  3.49181e-21 -7.31847e-21
-9.70981e-23  3.49181e-21 -7.31847e-21
-9.70981e-23  3.49181e-21 -7.31847e-21
-9.70981e-23  3.49181e-21 -7.31847e-21
-9.70981e-23  3.49181e-21 -7.31847e-21
-9.70981e-23  3.49181e-21 -7.31847e-21
-9.70981e-23  3.49181e-21 -7.31847e-21
-9.70981e-23  3.49181e-21 -7.31847e-21
-9.70981e-23  3.49181e-21 -7.31847e-21
-9.70981e-23  3.49181e-21 -7.31847e-21
-9.70981e-23  3.49181e-21 -7.31847e-21
-9.70981e-23  3.49181e-21 -7.31847e-21
-9.70981e-23  3.49181e-21 -7.31847e-21
-9.70981e-23  3.49181e-21 -7.31847e-21
-9.70981e-23  3.49181e-21 -7.31847e-21
-9.70981e-23  3.49181e-21 -7.31847e-21
-9.70981e-23  3.49181e-21 -7.31847e-21
-9.70981e-23  3.49181e-21 -7.31847e-21
-9.70981e-23  3.49181e-21 -7.31847e-21
-9.70981e-23  3.49181e-21 -7.31847e-21
-9.70981e-23  3.49181e-21 -7.31847e-21
-9.70981e-23  3.49181e-21 -7.31847e-21
-9.70981e-23  3.49181e-21 -7.31847e-21
-9.70981e-23  3.49181e-21 -7.31847e-21
-9.70981e-23  3.49181e-21 -7.31847e-21
-9.70981e-23  3.49181e-21 -7.31847e-21
-9.70981e-23  3.49181e-21 -7.31847e-21
-9.70981e-23  3.49181e-21 -7.31847e-21
-9.70981e-23  3.49181e-21 -7.31847e-21
-9.70981e-23  3.49181e-21 -7.31847e-21
-9.70981e-23  3.49181e-21 -7.31847e-21
-9.70981e-23  3.49181e-21 -7.31847e-21
-9.70981e-23  3.49181e-21 -7.31847e-21
-9.70981e-23  3.49181e-21 -7.31847e-21
-9.70981e-23  3.49181e-21 -7.31847e-21
-9.70981e-23  3.49181e-21 -7.31847e-21
-9.70981e-23  3.49181e-21 -7.31847e-21
-9.70981e-23  3.49181e-21 -7.31847e-21
-9.70981e-23  3.49181e-21 -7.31847e-21
-9.70981e-23  3.49181e-21 -7.31847e-21
-9.70981e-23  3.49181e-21 -7.31847e-21
-9.70981e-23  3.49181e-21 -7.31847e-21
-9.70981e-23  3.49181e-21 -7.31847e-21
-9.70981e-23  3.49181e-21 -7.31847e-21
-9.70981e-23  3.49181e-21 -7.31847e-21
-9.70981e-23  3.49181e-21 -7.31847e-21
-9.70981e-23  3.49181e-21 -7.31847e-21
-9.70981e-23  3.49181e-21 -7.31847e-21
-9.70981e-23  3.49181e-21 -7.31847e-21
-9.70981e-23  3.49181e-21 -7.31847e-21
-9.70981e-23  3.49181e-21 -7.31847e-21
-9.70981e-23  3.49181e-21 -7.31847e-21
-9.70981e-23  3.49181e-21 -7.31847e-21
-9.70981e-23  3.49181e-21 -7.31847e-21
-9.70981e-23  3.49181e-21 -7.31847e-21
-9.70981e-23  3.49181e-21 -7.31847e-21
-9.70981e-23  3.49181e-21 -7.31847e-21
-9.70981e-23  3.49181e-21 -7.31847e-21
-9.70981e-23  3.49181e-21 -7.31847e-21
-9.70981e-23  3.49181e-21 -7.31847e-21
-9.70981e-23  3.49181e-21 -7.31847e-21
-9.70981e-23  3.49181e-21 -7.31847e-21
-9.70981e-23  3.49181e-21 -7.31847e-21
-9.70981e-23  3.49181e-21 -7.31847e-21
-9.70981e-23  3.49181e-21 -7.31847e-21
 4.36321e-16  2.60681e-16 -4.03561e-15
-2.80212e-18 -3.87249e-19  5.61127e-20
6.74625e-20 4.98561e-21 4.60194e-21
-9.70981e-23  3.49181e-21 -7.31847e-21
-9.70981e-23  3.49181e-21 -7.31847e-21
-9.70981e-23  3.49181e-21 -7.31847e-21
-9.70981e-23  3.49181e-21 -7.31847e-21
-9.70981e-23  3.49181e-21 -7.31847e-21
-9.70981e-23  3.49181e-21 -7.31847e-21
-9.70981e-23  3.49181e-21 -7.31847e-21
-9.70981e-23  3.49181e-21 -7.31847e-21
-9.70981e-23  3.49181e-21 -7.31847e-21
-9.70981e-23  3.49181e-21 -7.31847e-21
-9.70981e-23  3.49181e-21 -7.31847e-21
-9.70981e-23  3.49181e-21 -7.31847e-21
-9.70981e-23  3.49181e-21 -7.31847e-21
-9.70981e-23  3.49181e-21 -7.31847e-21
-9.70981e-23  3.49181e-21 -7.31847e-21
-9.70981e-23  3.49181e-21 -7.31847e-21
-9.70981e-23  3.49181e-21 -7.31847e-21
-9.70981e-23  3.49181e-21 -7.31847e-21
-9.70981e-23  3.49181e-21 -7.31847e-21
-9.70981e-23  3.49181e-21 -7.31847e-21
-9.70981e-23  3.49181e-21 -7.31847e-21
-9.70981e-23  3.49181e-21 -7.31847e-21
-9.70981e-23  3.49181e-21 -7.31847e-21
-9.70981e-23  3.49181e-21 -7.31847e-21
-9.70981e-23  3.49181e-21 -7.31847e-21
-9.70981e-23  3.49181e-21 -7.31847e-21
-9.70981e-23  3.49181e-21 -7.31847e-21
-9.70981e-23  3.49181e-21 -7.31847e-21
-9.70981e-23  3.49181e-21 -7.31847e-21
-9.70981e-23  3.49181e-21 -7.31847e-21
-9.70981e-23  3.49181e-21 -7.31847e-21
-9.70981e-23  3.49181e-21 -7.31847e-21
-9.70981e-23  3.49181e-21 -7.31847e-21
-9.70981e-23  3.49181e-21 -7.31847e-21
-9.70981e-23  3.49181e-21 -7.31847e-21
-9.70981e-23  3.49181e-21 -7.31847e-21
-9.70981e-23  3.49181e-21 -7.31847e-21
-9.70981e-23  3.49181e-21 -7.31847e-21
-9.70981e-23  3.49181e-21 -7.31847e-21
-9.70981e-23  3.49181e-21 -7.31847e-21
-9.70981e-23  3.49181e-21 -7.31847e-21
-9.70981e-23  3.49181e-21 -7.31847e-21
-9.70981e-23  3.49181e-21 -7.31847e-21
-9.70981e-23  3.49181e-21 -7.31847e-21
-9.70981e-23  3.49181e-21 -7.31847e-21
-9.70981e-23  3.49181e-21 -7.31847e-21
-9.70981e-23  3.49181e-21 -7.31847e-21
-9.70981e-23  3.49181e-21 -7.31847e-21
-9.70981e-23  3.49181e-21 -7.31847e-21
-9.70981e-23  3.49181e-21 -7.31847e-21
-9.70981e-23  3.49181e-21 -7.31847e-21
-9.70981e-23  3.49181e-21 -7.31847e-21
-9.70981e-23  3.49181e-21 -7.31847e-21
-9.70981e-23  3.49181e-21 -7.31847e-21
-9.70981e-23  3.49181e-21 -7.31847e-21
-9.70981e-23  3.49181e-21 -7.31847e-21
-9.70981e-23  3.49181e-21 -7.31847e-21
-9.70981e-23  3.49181e-21 -7.31847e-21
-9.70981e-23  3.49181e-21 -7.31847e-21
-9.70981e-23  3.49181e-21 -7.31847e-21
-9.70981e-23  3.49181e-21 -7.31847e-21
-9.70981e-23  3.49181e-21 -7.31847e-21
-9.70981e-23  3.49181e-21 -7.31847e-21
-9.70981e-23  3.49181e-21 -7.31847e-21
-9.70981e-23  3.49181e-21 -7.31847e-21
-9.70981e-23  3.49181e-21 -7.31847e-21
-9.70981e-23  3.49181e-21 -7.31847e-21
-9.70981e-23  3.49181e-21 -7.31847e-21
-9.70981e-23  3.49181e-21 -7.31847e-21
-9.70981e-23  3.49181e-21 -7.31847e-21
-9.70981e-23  3.49181e-21 -7.31847e-21
-9.70981e-23  3.49181e-21 -7.31847e-21
-9.70981e-23  3.49181e-21 -7.31847e-21
-9.70981e-23  3.49181e-21 -7.31847e-21
-9.70981e-23  3.49181e-21 -7.31847e-21
-9.70981e-23  3.49181e-21 -7.31847e-21
-9.70981e-23  3.49181e-21 -7.31847e-21
-9.70981e-23  3.49181e-21 -7.31847e-21
-9.70981e-23  3.49181e-21 -7.31847e-21
-9.70981e-23  3.49181e-21 -7.31847e-21
-9.70981e-23  3.49181e-21 -7.31847e-21
-9.70981e-23  3.49181e-21 -7.31847e-21
-9.70981e-23  3.49181e-21 -7.31847e-21
-9.70981e-23  3.49181e-21 -7.31847e-21
-9.70981e-23  3.49181e-21 -7.31847e-21
-9.70981e-23  3.49181e-21 -7.31847e-21
-9.70981e-23  3.49181e-21 -7.31847e-21
-9.70981e-23  3.49181e-21 -7.31847e-21
-9.70981e-23  3.49181e-21 -7.31847e-21
-9.70981e-23  3.49181e-21 -7.31847e-21
-9.70981e-23  3.49181e-21 -7.31847e-21
-9.70981e-23  3.49181e-21 -7.31847e-21
-9.70981e-23  3.49181e-21 -7.31847e-21
-9.70981e-23  3.49181e-21 -7.31847e-21
-9.70981e-23  3.49181e-21 -7.31847e-21
-9.70981e-23  3.49181e-21 -7.31847e-21
-9.70981e-23  3.49181e-21 -7.31847e-21
-9.70981e-23  3.49181e-21 -7.31847e-21
-9.70981e-23  3.49181e-21 -7.31847e-21
-9.70981e-23  3.49181e-21 -7.31847e-21
-9.70981e-23  3.49181e-21 -7.31847e-21
-9.70981e-23  3.49181e-21 -7.31847e-21
-9.70981e-23  3.49181e-21 -7.31847e-21
-9.70981e-23  3.49181e-21 -7.31847e-21
-9.70981e-23  3.49181e-21 -7.31847e-21
 4.36321e-16  2.60681e-16 -4.03561e-15
-2.80212e-18 -3.87249e-19  5.61127e-20
6.74625e-20 4.98561e-21 4.60194e-21
-9.70981e-23  3.49181e-21 -7.31847e-21
-9.70981e-23  3.49181e-21 -7.31847e-21
-9.70981e-23  3.49181e-21 -7.31847e-21
-9.70981e-23  3.49181e-21 -7.31847e-21
-9.70981e-23  3.49181e-21 -7.31847e-21
-9.70981e-23  3.49181e-21 -7.31847e-21
-9.70981e-23  3.49181e-21 -7.31847e-21
-9.70981e-23  3.49181e-21 -7.31847e-21
-9.70981e-23  3.49181e-21 -7.31847e-21
-9.70981e-23  3.49181e-21 -7.31847e-21
-9.70981e-23  3.49181e-21 -7.31847e-21
-9.70981e-23  3.49181e-21 -7.31847e-21
-9.70981e-23  3.49181e-21 -7.31847e-21
-9.70981e-23  3.49181e-21 -7.31847e-21
-9.70981e-23  3.49181e-21 -7.31847e-21
-9.70981e-23  3.49181e-21 -7.31847e-21
-9.70981e-23  3.49181e-21 -7.31847e-21
-9.70981e-23  3.49181e-21 -7.31847e-21
-9.70981e-23  3.49181e-21 -7.31847e-21
-9.70981e-23  3.49181e-21 -7.31847e-21
-9.70981e-23  3.49181e-21 -7.31847e-21
-9.70981e-23  3.49181e-21 -7.31847e-21
-9.70981e-23  3.49181e-21 -7.31847e-21
-9.70981e-23  3.49181e-21 -7.31847e-21
-9.70981e-23  3.49181e-21 -7.31847e-21
-9.70981e-23  3.49181e-21 -7.31847e-21
-9.70981e-23  3.49181e-21 -7.31847e-21
-9.70981e-23  3.49181e-21 -7.31847e-21
-9.70981e-23  3.49181e-21 -7.31847e-21
-9.70981e-23  3.49181e-21 -7.31847e-21
-9.70981e-23  3.49181e-21 -7.31847e-21
-9.70981e-23  3.49181e-21 -7.31847e-21
-9.70981e-23  3.49181e-21 -7.31847e-21
-9.70981e-23  3.49181e-21 -7.31847e-21
-9.70981e-23  3.49181e-21 -7.31847e-21
-9.70981e-23  3.49181e-21 -7.31847e-21
-9.70981e-23  3.49181e-21 -7.31847e-21
-9.70981e-23  3.49181e-21 -7.31847e-21
-9.70981e-23  3.49181e-21 -7.31847e-21
-9.70981e-23  3.49181e-21 -7.31847e-21
-9.70981e-23  3.49181e-21 -7.31847e-21
-9.70981e-23  3.49181e-21 -7.31847e-21
-9.70981e-23  3.49181e-21 -7.31847e-21
-9.70981e-23  3.49181e-21 -7.31847e-21
-9.70981e-23  3.49181e-21 -7.31847e-21
-9.70981e-23  3.49181e-21 -7.31847e-21
-9.70981e-23  3.49181e-21 -7.31847e-21
-9.70981e-23  3.49181e-21 -7.31847e-21
-9.70981e-23  3.49181e-21 -7.31847e-21
-9.70981e-23  3.49181e-21 -7.31847e-21
-9.70981e-23  3.49181e-21 -7.31847e-21
-9.70981e-23  3.49181e-21 -7.31847e-21
-9.70981e-23  3.49181e-21 -7.31847e-21
-9.70981e-23  3.49181e-21 -7.31847e-21
-9.70981e-23  3.49181e-21 -7.31847e-21
-9.70981e-23  3.49181e-21 -7.31847e-21
-9.70981e-23  3.49181e-21 -7.31847e-21
-9.70981e-23  3.49181e-21 -7.31847e-21
-9.70981e-23  3.49181e-21 -7.31847e-21
-9.70981e-23  3.49181e-21 -7.31847e-21
-9.70981e-23  3.49181e-21 -7.31847e-21
-9.70981e-23  3.49181e-21 -7.31847e-21
-9.70981e-23  3.49181e-21 -7.31847e-21
-9.70981e-23  3.49181e-21 -7.31847e-21
-9.70981e-23  3.49181e-21 -7.31847e-21
-9.70981e-23  3.49181e-21 -7.31847e-21
-9.70981e-23  3.49181e-21 -7.31847e-21
-9.70981e-23  3.49181e-21 -7.31847e-21
-9.70981e-23  3.49181e-21 -7.31847e-21
-9.70981e-23  3.49181e-21 -7.31847e-21
-9.70981e-23  3.49181e-21 -7.31847e-21
-9.70981e-23  3.49181e-21 -7.31847e-21
-9.70981e-23  3.49181e-21 -7.31847e-21
-9.70981e-23  3.49181e-21 -7.31847e-21
-9.70981e-23  3.49181e-21 -7.31847e-21
-9.70981e-23  3.49181e-21 -7.31847e-21
-9.70981e-23  3.49181e-21 -7.31847e-21
-9.70981e-23  3.49181e-21 -7.31847e-21
-9.70981e-23  3.49181e-21 -7.31847e-21
-9.70981e-23  3.49181e-21 -7.31847e-21
-9.70981e-23  3.49181e-21 -7.31847e-21
-9.70981e-23  3.49181e-21 -7.31847e-21
-9.70981e-23  3.49181e-21 -7.31847e-21
-9.70981e-23  3.49181e-21 -7.31847e-21
-9.70981e-23  3.49181e-21 -7.31847e-21
-9.70981e-23  3.49181e-21 -7.31847e-21
-9.70981e-23  3.49181e-21 -7.31847e-21
-9.70981e-23  3.49181e-21 -7.31847e-21
-9.70981e-23  3.49181e-21 -7.31847e-21
-9.70981e-23  3.49181e-21 -7.31847e-21
-9.70981e-23  3.49181e-21 -7.31847e-21
-9.70981e-23  3.49181e-21 -7.31847e-21
-9.70981e-23  3.49181e-21 -7.31847e-21
-9.70981e-23  3.49181e-21 -7.31847e-21
-9.70981e-23  3.49181e-21 -7.31847e-21
-9.70981e-23  3.49181e-21 -7.31847e-21
-9.70981e-23  3.49181e-21 -7.31847e-21
-9.70981e-23  3.49181e-21 -7.31847e-21
-9.70981e-23  3.49181e-21 -7.31847e-21
-9.70981e-23  3.49181e-21 -7.31847e-21
-9.70981e-23  3.49181e-21 -7.31847e-21
-9.70981e-23  3.49181e-21 -7.31847e-21
-9.70981e-23  3.49181e-21 -7.31847e-21
-9.70981e-23  3.49181e-21 -7.31847e-21
-9.70981e-23  3.49181e-21 -7.31847e-21
 4.36321e-16  2.60681e-16 -4.03561e-15
-2.80212e-18 -3.87249e-19  5.61127e-20
6.74625e-20 4.98561e-21 4.60194e-21
-9.70981e-23  3.49181e-21 -7.31847e-21
-9.70981e-23  3.49181e-21 -7.31847e-21
-9.70981e-23  3.49181e-21 -7.31847e-21
-9.70981e-23  3.49181e-21 -7.31847e-21
-9.70981e-23  3.49181e-21 -7.31847e-21
-9.70981e-23  3.49181e-21 -7.31847e-21
-9.70981e-23  3.49181e-21 -7.31847e-21
-9.70981e-23  3.49181e-21 -7.31847e-21
-9.70981e-23  3.49181e-21 -7.31847e-21
-9.70981e-23  3.49181e-21 -7.31847e-21
-9.70981e-23  3.49181e-21 -7.31847e-21
-9.70981e-23  3.49181e-21 -7.31847e-21
-9.70981e-23  3.49181e-21 -7.31847e-21
-9.70981e-23  3.49181e-21 -7.31847e-21
-9.70981e-23  3.49181e-21 -7.31847e-21
-9.70981e-23  3.49181e-21 -7.31847e-21
-9.70981e-23  3.49181e-21 -7.31847e-21
-9.70981e-23  3.49181e-21 -7.31847e-21
-9.70981e-23  3.49181e-21 -7.31847e-21
-9.70981e-23  3.49181e-21 -7.31847e-21
-9.70981e-23  3.49181e-21 -7.31847e-21
-9.70981e-23  3.49181e-21 -7.31847e-21
-9.70981e-23  3.49181e-21 -7.31847e-21
-9.70981e-23  3.49181e-21 -7.31847e-21
-9.70981e-23  3.49181e-21 -7.31847e-21
-9.70981e-23  3.49181e-21 -7.31847e-21
-9.70981e-23  3.49181e-21 -7.31847e-21
-9.70981e-23  3.49181e-21 -7.31847e-21
-9.70981e-23  3.49181e-21 -7.31847e-21
-9.70981e-23  3.49181e-21 -7.31847e-21
-9.70981e-23  3.49181e-21 -7.31847e-21
-9.70981e-23  3.49181e-21 -7.31847e-21
-9.70981e-23  3.49181e-21 -7.31847e-21
-9.70981e-23  3.49181e-21 -7.31847e-21
-9.70981e-23  3.49181e-21 -7.31847e-21
-9.70981e-23  3.49181e-21 -7.31847e-21
-9.70981e-23  3.49181e-21 -7.31847e-21
-9.70981e-23  3.49181e-21 -7.31847e-21
-9.70981e-23  3.49181e-21 -7.31847e-21
-9.70981e-23  3.49181e-21 -7.31847e-21
-9.70981e-23  3.49181e-21 -7.31847e-21
-9.70981e-23  3.49181e-21 -7.31847e-21
-9.70981e-23  3.49181e-21 -7.31847e-21
-9.70981e-23  3.49181e-21 -7.31847e-21
-9.70981e-23  3.49181e-21 -7.31847e-21
-9.70981e-23  3.49181e-21 -7.31847e-21
-9.70981e-23  3.49181e-21 -7.31847e-21
-9.70981e-23  3.49181e-21 -7.31847e-21
-9.70981e-23  3.49181e-21 -7.31847e-21
-9.70981e-23  3.49181e-21 -7.31847e-21
-9.70981e-23  3.49181e-21 -7.31847e-21
-9.70981e-23  3.49181e-21 -7.31847e-21
-9.70981e-23  3.49181e-21 -7.31847e-21
-9.70981e-23  3.49181e-21 -7.31847e-21
-9.70981e-23  3.49181e-21 -7.31847e-21
-9.70981e-23  3.49181e-21 -7.31847e-21
-9.70981e-23  3.49181e-21 -7.31847e-21
-9.70981e-23  3.49181e-21 -7.31847e-21
-9.70981e-23  3.49181e-21 -7.31847e-21
-9.70981e-23  3.49181e-21 -7.31847e-21
-9.70981e-23  3.49181e-21 -7.31847e-21
-9.70981e-23  3.49181e-21 -7.31847e-21
-9.70981e-23  3.49181e-21 -7.31847e-21
-9.70981e-23  3.49181e-21 -7.31847e-21
-9.70981e-23  3.49181e-21 -7.31847e-21
-9.70981e-23  3.49181e-21 -7.31847e-21
-9.70981e-23  3.49181e-21 -7.31847e-21
-9.70981e-23  3.49181e-21 -7.31847e-21
-9.70981e-23  3.49181e-21 -7.31847e-21
-9.70981e-23  3.49181e-21 -7.31847e-21
-9.70981e-23  3.49181e-21 -7.31847e-21
-9.70981e-23  3.49181e-21 -7.31847e-21
-9.70981e-23  3.49181e-21 -7.31847e-21
-9.70981e-23  3.49181e-21 -7.31847e-21
-9.70981e-23  3.49181e-21 -7.31847e-21
-9.70981e-23  3.49181e-21 -7.31847e-21
-9.70981e-23  3.49181e-21 -7.31847e-21
-9.70981e-23  3.49181e-21 -7.31847e-21
-9.70981e-23  3.49181e-21 -7.31847e-21
-9.70981e-23  3.49181e-21 -7.31847e-21
-9.70981e-23  3.49181e-21 -7.31847e-21
-9.70981e-23  3.49181e-21 -7.31847e-21
-9.70981e-23  3.49181e-21 -7.31847e-21
-9.70981e-23  3.49181e-21 -7.31847e-21
-9.70981e-23  3.49181e-21 -7.31847e-21
-9.70981e-23  3.49181e-21 -7.31847e-21
-9.70981e-23  3.49181e-21 -7.31847e-21
-9.70981e-23  3.49181e-21 -7.31847e-21
-9.70981e-23  3.49181e-21 -7.31847e-21
-9.70981e-23  3.49181e-21 -7.31847e-21
-9.70981e-23  3.49181e-21 -7.31847e-21
-9.70981e-23  3.49181e-21 -7.31847e-21
-9.70981e-23  3.49181e-21 -7.31847e-21
-9.70981e-23  3.49181e-21 -7.31847e-21
-9.70981e-23  3.49181e-21 -7.31847e-21
 4.36321e-16  2.60681e-16 -4.03561e-15
-2.80212e-18 -3.87249e-19  5.61127e-20
6.74625e-20 4.98561e-21 4.60194e-21
-9.70981e-23  3.49181e-21 -7.31847e-21
-9.70981e-23  3.49181e-21 -7.31847e-21
-9.70981e-23  3.49181e-21 -7.31847e-21
-9.70981e-23  3.49181e-21 -7.31847e-21
-9.70981e-23  3.49181e-21 -7.31847e-21
-9.70981e-23  3.49181e-21 -7.31847e-21
-9.70981e-23  3.49181e-21 -7.31847e-21
-9.70981e-23  3.49181e-21 -7.31847e-21
-9.70981e-23  3.49181e-21 -7.31847e-21
-9.70981e-23  3.49181e-21 -7.31847e-21
-9.70981e-23  3.49181e-21 -7.31847e-21
-9.70981e-23  3.49181e-21 -7.31847e-21
-9.70981e-23  3.49181e-21 -7.31847e-21
-9.70981e-23  3.49181e-21 -7.31847e-21
-9.70981e-23  3.49181e-21 -7.31847e-21
-9.70981e-23  3.49181e-21 -7.31847e-21
-9.70981e-23  3.49181e-21 -7.31847e-21
-9.70981e-23  3.49181e-21 -7.31847e-21
-9.70981e-23  3.49181e-21 -7.31847e-21
-9.70981e-23  3.49181e-21 -7.31847e-21
-9.70981e-23  3.49181e-21 -7.31847e-21
-9.70981e-23  3.49181e-21 -7.31847e-21
-9.70981e-23  3.49181e-21 -7.31847e-21
-9.70981e-23  3.49181e-21 -7.31847e-21
-9.70981e-23  3.49181e-21 -7.31847e-21
-9.70981e-23  3.49181e-21 -7.31847e-21
-9.70981e-23  3.49181e-21 -7.31847e-21
-9.70981e-23  3.49181e-21 -7.31847e-21
-9.70981e-23  3.49181e-21 -7.31847e-21
-9.70981e-23  3.49181e-21 -7.31847e-21
-9.70981e-23  3.49181e-21 -7.31847e-21
-9.70981e-23  3.49181e-21 -7.31847e-21
-9.70981e-23  3.49181e-21 -7.31847e-21
-9.70981e-23  3.49181e-21 -7.31847e-21
-9.70981e-23  3.49181e-21 -7.31847e-21
-9.70981e-23  3.49181e-21 -7.31847e-21
-9.70981e-23  3.49181e-21 -7.31847e-21
-9.70981e-23  3.49181e-21 -7.31847e-21
-9.70981e-23  3.49181e-21 -7.31847e-21
-9.70981e-23  3.49181e-21 -7.31847e-21
-9.70981e-23  3.49181e-21 -7.31847e-21
-9.70981e-23  3.49181e-21 -7.31847e-21
-9.70981e-23  3.49181e-21 -7.31847e-21
-9.70981e-23  3.49181e-21 -7.31847e-21
-9.70981e-23  3.49181e-21 -7.31847e-21
-9.70981e-23  3.49181e-21 -7.31847e-21
-9.70981e-23  3.49181e-21 -7.31847e-21
-9.70981e-23  3.49181e-21 -7.31847e-21
-9.70981e-23  3.49181e-21 -7.31847e-21
-9.70981e-23  3.49181e-21 -7.31847e-21
-9.70981e-23  3.49181e-21 -7.31847e-21
-9.70981e-23  3.49181e-21 -7.31847e-21
-9.70981e-23  3.49181e-21 -7.31847e-21
-9.70981e-23  3.49181e-21 -7.31847e-21
-9.70981e-23  3.49181e-21 -7.31847e-21
-9.70981e-23  3.49181e-21 -7.31847e-21
-9.70981e-23  3.49181e-21 -7.31847e-21
-9.70981e-23  3.49181e-21 -7.31847e-21
-9.70981e-23  3.49181e-21 -7.31847e-21
-9.70981e-23  3.49181e-21 -7.31847e-21
-9.70981e-23  3.49181e-21 -7.31847e-21
-9.70981e-23  3.49181e-21 -7.31847e-21
-9.70981e-23  3.49181e-21 -7.31847e-21
-9.70981e-23  3.49181e-21 -7.31847e-21
-9.70981e-23  3.49181e-21 -7.31847e-21
-9.70981e-23  3.49181e-21 -7.31847e-21
-9.70981e-23  3.49181e-21 -7.31847e-21
-9.70981e-23  3.49181e-21 -7.31847e-21
-9.70981e-23  3.49181e-21 -7.31847e-21
-9.70981e-23  3.49181e-21 -7.31847e-21
-9.70981e-23  3.49181e-21 -7.31847e-21
-9.70981e-23  3.49181e-21 -7.31847e-21
-9.70981e-23  3.49181e-21 -7.31847e-21
-9.70981e-23  3.49181e-21 -7.31847e-21
-9.70981e-23  3.49181e-21 -7.31847e-21
-9.70981e-23  3.49181e-21 -7.31847e-21
-9.70981e-23  3.49181e-21 -7.31847e-21
-9.70981e-23  3.49181e-21 -7.31847e-21
-9.70981e-23  3.49181e-21 -7.31847e-21
-9.70981e-23  3.49181e-21 -7.31847e-21
-9.70981e-23  3.49181e-21 -7.31847e-21
-9.70981e-23  3.49181e-21 -7.31847e-21
-9.70981e-23  3.49181e-21 -7.31847e-21
-9.70981e-23  3.49181e-21 -7.31847e-21
-9.70981e-23  3.49181e-21 -7.31847e-21
-9.70981e-23  3.49181e-21 -7.31847e-21
-9.70981e-23  3.49181e-21 -7.31847e-21
-9.70981e-23  3.49181e-21 -7.31847e-21
-9.70981e-23  3.49181e-21 -7.31847e-21
-9.70981e-23  3.49181e-21 -7.31847e-21
-9.70981e-23  3.49181e-21 -7.31847e-21
-9.70981e-23  3.49181e-21 -7.31847e-21
-9.70981e-23  3.49181e-21 -7.31847e-21
-9.70981e-23  3.49181e-21 -7.31847e-21
-9.70981e-23  3.49181e-21 -7.31847e-21
 4.36321e-16  2.60681e-16 -4.03561e-15
-2.80212e-18 -3.87249e-19  5.61127e-20
6.74625e-20 4.98561e-21 4.60194e-21
-9.70981e-23  3.49181e-21 -7.31847e-21
-9.70981e-23  3.49181e-21 -7.31847e-21
-9.70981e-23  3.49181e-21 -7.31847e-21
-9.70981e-23  3.49181e-21 -7.31847e-21
-9.70981e-23  3.49181e-21 -7.31847e-21
-9.70981e-23  3.49181e-21 -7.31847e-21
-9.70981e-23  3.49181e-21 -7.31847e-21
-9.70981e-23  3.49181e-21 -7.31847e-21
-9.70981e-23  3.49181e-21 -7.31847e-21
-9.70981e-23  3.49181e-21 -7.31847e-21
-9.70981e-23  3.49181e-21 -7.31847e-21
-9.70981e-23  3.49181e-21 -7.31847e-21
-9.70981e-23  3.49181e-21 -7.31847e-21
-9.70981e-23  3.49181e-21 -7.31847e-21
-9.70981e-23  3.49181e-21 -7.31847e-21
-9.70981e-23  3.49181e-21 -7.31847e-21
-9.70981e-23  3.49181e-21 -7.31847e-21
-9.70981e-23  3.49181e-21 -7.31847e-21
-9.70981e-23  3.49181e-21 -7.31847e-21
-9.70981e-23  3.49181e-21 -7.31847e-21
-9.70981e-23  3.49181e-21 -7.31847e-21
-9.70981e-23  3.49181e-21 -7.31847e-21
-9.70981e-23  3.49181e-21 -7.31847e-21
-9.70981e-23  3.49181e-21 -7.31847e-21
-9.70981e-23  3.49181e-21 -7.31847e-21
-9.70981e-23  3.49181e-21 -7.31847e-21
-9.70981e-23  3.49181e-21 -7.31847e-21
-9.70981e-23  3.49181e-21 -7.31847e-21
-9.70981e-23  3.49181e-21 -7.31847e-21
-9.70981e-23  3.49181e-21 -7.31847e-21
-9.70981e-23  3.49181e-21 -7.31847e-21
-9.70981e-23  3.49181e-21 -7.31847e-21
-9.70981e-23  3.49181e-21 -7.31847e-21
-9.70981e-23  3.49181e-21 -7.31847e-21
-9.70981e-23  3.49181e-21 -7.31847e-21
-9.70981e-23  3.49181e-21 -7.31847e-21
-9.70981e-23  3.49181e-21 -7.31847e-21
-9.70981e-23  3.49181e-21 -7.31847e-21
-9.70981e-23  3.49181e-21 -7.31847e-21
-9.70981e-23  3.49181e-21 -7.31847e-21
-9.70981e-23  3.49181e-21 -7.31847e-21
-9.70981e-23  3.49181e-21 -7.31847e-21
-9.70981e-23  3.49181e-21 -7.31847e-21
-9.70981e-23  3.49181e-21 -7.31847e-21
-9.70981e-23  3.49181e-21 -7.31847e-21
-9.70981e-23  3.49181e-21 -7.31847e-21
-9.70981e-23  3.49181e-21 -7.31847e-21
-9.70981e-23  3.49181e-21 -7.31847e-21
-9.70981e-23  3.49181e-21 -7.31847e-21
-9.70981e-23  3.49181e-21 -7.31847e-21
-9.70981e-23  3.49181e-21 -7.31847e-21
-9.70981e-23  3.49181e-21 -7.31847e-21
-9.70981e-23  3.49181e-21 -7.31847e-21
-9.70981e-23  3.49181e-21 -7.31847e-21
-9.70981e-23  3.49181e-21 -7.31847e-21
-9.70981e-23  3.49181e-21 -7.31847e-21
-9.70981e-23  3.49181e-21 -7.31847e-21
-9.70981e-23  3.49181e-21 -7.31847e-21
-9.70981e-23  3.49181e-21 -7.31847e-21
-9.70981e-23  3.49181e-21 -7.31847e-21
-9.70981e-23  3.49181e-21 -7.31847e-21
-9.70981e-23  3.49181e-21 -7.31847e-21
-9.70981e-23  3.49181e-21 -7.31847e-21
-9.70981e-23  3.49181e-21 -7.31847e-21
-9.70981e-23  3.49181e-21 -7.31847e-21
-9.70981e-23  3.49181e-21 -7.31847e-21
-9.70981e-23  3.49181e-21 -7.31847e-21
-9.70981e-23  3.49181e-21 -7.31847e-21
-9.70981e-23  3.49181e-21 -7.31847e-21
-9.70981e-23  3.49181e-21 -7.31847e-21
-9.70981e-23  3.49181e-21 -7.31847e-21
-9.70981e-23  3.49181e-21 -7.31847e-21
-9.70981e-23  3.49181e-21 -7.31847e-21
-9.70981e-23  3.49181e-21 -7.31847e-21
-9.70981e-23  3.49181e-21 -7.31847e-21
-9.70981e-23  3.49181e-21 -7.31847e-21
-9.70981e-23  3.49181e-21 -7.31847e-21
-9.70981e-23  3.49181e-21 -7.31847e-21
-9.70981e-23  3.49181e-21 -7.31847e-21
-9.70981e-23  3.49181e-21 -7.31847e-21
-9.70981e-23  3.49181e-21 -7.31847e-21
-9.70981e-23  3.49181e-21 -7.31847e-21
-9.70981e-23  3.49181e-21 -7.31847e-21
-9.70981e-23  3.49181e-21 -7.31847e-21
-9.70981e-23  3.49181e-21 -7.31847e-21
-9.70981e-23  3.49181e-21 -7.31847e-21
-9.70981e-23  3.49181e-21 -7.31847e-21
-9.70981e-23  3.49181e-21 -7.31847e-21
-9.70981e-23  3.49181e-21 -7.31847e-21
-9.70981e-23  3.49181e-21 -7.31847e-21
-9.70981e-23  3.49181e-21 -7.31847e-21
-9.70981e-23  3.49181e-21 -7.31847e-21
-9.70981e-23  3.49181e-21 -7.31847e-21
-9.70981e-23  3.49181e-21 -7.31847e-21
-9.70981e-23  3.49181e-21 -7.31847e-21
-9.70981e-23  3.49181e-21 -7.31847e-21
-9.70981e-23  3.49181e-21 -7.31847e-21
-9.70981e-23  3.49181e-21 -7.31847e-21
-9.70981e-23  3.49181e-21 -7.31847e-21
-9.70981e-23  3.49181e-21 -7.31847e-21
-9.70981e-23  3.49181e-21 -7.31847e-21
-9.70981e-23  3.49181e-21 -7.31847e-21
-9.70981e-23  3.49181e-21 -7.31847e-21
-9.70981e-23  3.49181e-21 -7.31847e-21
-9.70981e-23  3.49181e-21 -7.31847e-21
 4.36321e-16  2.60681e-16 -4.03561e-15
-2.80212e-18 -3.87249e-19  5.61127e-20
6.74625e-20 4.98561e-21 4.60194e-21
-9.70981e-23  3.49181e-21 -7.31847e-21
-9.70981e-23  3.49181e-21 -7.31847e-21
-9.70981e-23  3.49181e-21 -7.31847e-21
-9.70981e-23  3.49181e-21 -7.31847e-21
-9.70981e-23  3.49181e-21 -7.31847e-21
-9.70981e-23  3.49181e-21 -7.31847e-21
-9.70981e-23  3.49181e-21 -7.31847e-21
-9.70981e-23  3.49181e-21 -7.31847e-21
-9.70981e-23  3.49181e-21 -7.31847e-21
-9.70981e-23  3.49181e-21 -7.31847e-21
-9.70981e-23  3.49181e-21 -7.31847e-21
-9.70981e-23  3.49181e-21 -7.31847e-21
-9.70981e-23  3.49181e-21 -7.31847e-21
-9.70981e-23  3.49181e-21 -7.31847e-21
-9.70981e-23  3.49181e-21 -7.31847e-21
-9.70981e-23  3.49181e-21 -7.31847e-21
-9.70981e-23  3.49181e-21 -7.31847e-21
-9.70981e-23  3.49181e-21 -7.31847e-21
-9.70981e-23  3.49181e-21 -7.31847e-21
-9.70981e-23  3.49181e-21 -7.31847e-21
-9.70981e-23  3.49181e-21 -7.31847e-21
-9.70981e-23  3.49181e-21 -7.31847e-21
-9.70981e-23  3.49181e-21 -7.31847e-21
-9.70981e-23  3.49181e-21 -7.31847e-21
-9.70981e-23  3.49181e-21 -7.31847e-21
-9.70981e-23  3.49181e-21 -7.31847e-21
-9.70981e-23  3.49181e-21 -7.31847e-21
-9.70981e-23  3.49181e-21 -7.31847e-21
-9.70981e-23  3.49181e-21 -7.31847e-21
-9.70981e-23  3.49181e-21 -7.31847e-21
-9.70981e-23  3.49181e-21 -7.31847e-21
-9.70981e-23  3.49181e-21 -7.31847e-21
-9.70981e-23  3.49181e-21 -7.31847e-21
-9.70981e-23  3.49181e-21 -7.31847e-21
-9.70981e-23  3.49181e-21 -7.31847e-21
-9.70981e-23  3.49181e-21 -7.31847e-21
-9.70981e-23  3.49181e-21 -7.31847e-21
-9.70981e-23  3.49181e-21 -7.31847e-21
-9.70981e-23  3.49181e-21 -7.31847e-21
-9.70981e-23  3.49181e-21 -7.31847e-21
-9.70981e-23  3.49181e-21 -7.31847e-21
-9.70981e-23  3.49181e-21 -7.31847e-21
-9.70981e-23  3.49181e-21 -7.31847e-21
-9.70981e-23  3.49181e-21 -7.31847e-21
-9.70981e-23  3.49181e-21 -7.31847e-21
-9.70981e-23  3.49181e-21 -7.31847e-21
-9.70981e-23  3.49181e-21 -7.31847e-21
-9.70981e-23  3.49181e-21 -7.31847e-21
-9.70981e-23  3.49181e-21 -7.31847e-21
-9.70981e-23  3.49181e-21 -7.31847e-21
-9.70981e-23  3.49181e-21 -7.31847e-21
-9.70981e-23  3.49181e-21 -7.31847e-21
-9.70981e-23  3.49181e-21 -7.31847e-21
-9.70981e-23  3.49181e-21 -7.31847e-21
-9.70981e-23  3.49181e-21 -7.31847e-21
-9.70981e-23  3.49181e-21 -7.31847e-21
-9.70981e-23  3.49181e-21 -7.31847e-21
-9.70981e-23  3.49181e-21 -7.31847e-21
-9.70981e-23  3.49181e-21 -7.31847e-21
-9.70981e-23  3.49181e-21 -7.31847e-21
-9.70981e-23  3.49181e-21 -7.31847e-21
-9.70981e-23  3.49181e-21 -7.31847e-21
-9.70981e-23  3.49181e-21 -7.31847e-21
-9.70981e-23  3.49181e-21 -7.31847e-21
-9.70981e-23  3.49181e-21 -7.31847e-21
-9.70981e-23  3.49181e-21 -7.31847e-21
-9.70981e-23  3.49181e-21 -7.31847e-21
-9.70981e-23  3.49181e-21 -7.31847e-21
-9.70981e-23  3.49181e-21 -7.31847e-21
-9.70981e-23  3.49181e-21 -7.31847e-21
-9.70981e-23  3.49181e-21 -7.31847e-21
-9.70981e-23  3.49181e-21 -7.31847e-21
-9.70981e-23  3.49181e-21 -7.31847e-21
-9.70981e-23  3.49181e-21 -7.31847e-21
-9.70981e-23  3.49181e-21 -7.31847e-21
-9.70981e-23  3.49181e-21 -7.31847e-21
-9.70981e-23  3.49181e-21 -7.31847e-21
-9.70981e-23  3.49181e-21 -7.31847e-21
-9.70981e-23  3.49181e-21 -7.31847e-21
-9.70981e-23  3.49181e-21 -7.31847e-21
-9.70981e-23  3.49181e-21 -7.31847e-21
-9.70981e-23  3.49181e-21 -7.31847e-21
-9.70981e-23  3.49181e-21 -7.31847e-21
-9.70981e-23  3.49181e-21 -7.31847e-21
-9.70981e-23  3.49181e-21 -7.31847e-21
-9.70981e-23  3.49181e-21 -7.31847e-21
-9.70981e-23  3.49181e-21 -7.31847e-21
-9.70981e-23  3.49181e-21 -7.31847e-21
-9.70981e-23  3.49181e-21 -7.31847e-21
-9.70981e-23  3.49181e-21 -7.31847e-21
-9.70981e-23  3.49181e-21 -7.31847e-21
-9.70981e-23  3.49181e-21 -7.31847e-21
-9.70981e-23  3.49181e-21 -7.31847e-21
-9.70981e-23  3.49181e-21 -7.31847e-21
-9.70981e-23  3.49181e-21 -7.31847e-21
-9.70981e-23  3.49181e-21 -7.31847e-21
-9.70981e-23  3.49181e-21 -7.31847e-21
-9.70981e-23  3.49181e-21 -7.31847e-21
-9.70981e-23  3.49181e-21 -7.31847e-21
-9.70981e-23  3.49181e-21 -7.31847e-21
-9.70981e-23  3.49181e-21 -7.31847e-21
-9.70981e-23  3.49181e-21 -7.31847e-21
-9.70981e-23  3.49181e-21 -7.31847e-21
-9.70981e-23  3.49181e-21 -7.31847e-21
-9.70981e-23  3.49181e-21 -7.31847e-21
