1.06915 -0.212723 0.370194 -0.00143441 -0.00174352 0.000108569
1.06893 -0.212991 0.370219 -0.00141931 -0.00175395 0.000128654
1.06833 -0.213779 0.370318 -0.00132198 -0.00177983 0.000184115
1.06814 -0.214137 0.370424 -0.00115881 -0.00178821 0.000264932
1.06797 -0.214858 0.370685 -0.000644641 -0.00180798 0.000404485
1.06828 -0.215142 0.370946 2.83215e-06 -0.00182101 0.000565586
1.06959 -0.215981 0.371578 0.00177283 -0.00185593 0.000815607
1.07151 -0.21629 0.372154 0.00372191 -0.00189077 0.00109197
1.07718 -0.21721 0.373378 0.00816358 -0.00197282 0.00146753
1.0832 -0.217595 0.374441 0.0126944 -0.00204977 0.00187821
1.09725 -0.218614 0.376367 0.021273 -0.0022228 0.00238949
1.11059 -0.219167 0.378007 0.0295855 -0.00239767 0.00292545
1.14132 -0.220595 0.381085 0.0221292 -0.000567543 0.00391763
1.16107 -0.221147 0.383662 -0.0320419 0.00511632 0.00630225
1.14494 -0.221233 0.390615 -0.201713 0.0180089 0.0198812
1.12958 -0.220487 0.398583 -0.251357 0.0211117 0.0304477
1.02657 -0.216446 0.410627 -0.330083 0.025335 0.0109491
0.999035 -0.220582 0.415297 -0.339567 0.0230672 0.00858741
0.827354 -0.212553 0.412464 -0.37789 0.0265232 -0.0182896
0.72394 -0.208931 0.415193 -0.394313 0.0265222 -0.00914596
0.507693 -0.192543 0.415816 -0.407957 0.0296832 0.00636598
0.405337 -0.183745 0.423837 -0.421653 0.0291113 0.040203
0.205301 -0.168679 0.442522 -0.425946 0.0297305 0.0506481
0.0864214 -0.163333 0.450553 -0.442282 0.0280488 0.0597068
-0.194912 -0.155402 0.467139 -0.469197 0.028297 0.0242593
-0.231401 -0.142724 0.489163 -0.459734 0.0292895 0.0315456
-0.637453 -0.141023 0.477981 -0.526741 0.0283051 -0.00309436
-0.944531 -0.122714 0.495544 -0.590008 0.0295732 0.0137883
-1.33187 -0.0914057 0.509835 -0.636084 0.0359972 0.0206795
-1.48666 -0.0953105 0.515131 -0.656194 0.0298681 0.0472279
-1.79271 -0.0850868 0.530932 -0.671117 0.0313883 0.0542093
-1.88479 -0.0907478 0.528715 -0.67459 0.0250879 0.0647999
-2.40741 -0.110952 0.534489 -0.754051 0.0202766 0.0379049
-2.83442 -0.0943273 0.553941 -0.84719 0.019034 0.0497631
-3.69302 -0.0878867 0.564707 -1.00762 0.0203706 0.0306656
-4.36402 -0.0983102 0.596476 -1.15307 0.0113956 0.0550005
-5.21623 -0.07432 0.635606 -1.27522 0.0170142 0.0607122
-5.48117 -0.094261 0.642978 -1.31332 0.00531632 0.0825236
-6.05138 -0.213899 0.65992 -1.29918 -0.026265 0.0868756
-6.2433 -0.269694 0.651316 -1.29226 -0.0474264 0.0911226
-6.86908 -0.434651 0.674678 -1.27746 -0.0611149 0.0679877
-6.87541 -0.0655213 0.681114 -1.22475 0.0445333 0.0679125
-6.63136 0.591831 0.708463 -0.997081 0.274758 0.0451564
-5.94554 0.0565921 0.663871 -0.797592 0.194055 0.0338869
-4.77797 0.00509467 0.668192 -0.435491 0.220037 0.0280761
-3.52227 0.00744773 0.589088 -0.148052 0.230307 0.0194235
-2.20125 -0.284877 0.568484 0.176434 0.193692 0.0174657
-1.27942 -1.54277 0.522544 0.354283 -0.0258006 0.0159698
-0.56755 -2.62807 0.489504 0.481152 -0.209244 0.00568825
-0.205244 -2.70961 0.46718 0.530437 -0.214563 0.00554619
0.102775 -2.32813 0.472617 0.558117 -0.158202 0.00433367
0.248316 -1.8642 0.479756 0.575381 -0.0878374 0.00376699
0.569143 -1.26014 0.477051 0.606764 0.00532424 0.00144392
0.613225 -1.14126 0.467412 0.599271 0.0117324 0.000475514
0.751099 -1.22114 0.468368 0.586827 -0.0178107 0.00174386
0.699829 -1.34268 0.470292 0.564748 -0.0454855 0.00335124
0.754819 -1.32575 0.47278 0.540005 -0.0587232 0.00556851
0.670373 -1.31155 0.479192 0.518187 -0.0622767 0.00661034
0.744629 -1.24339 0.482029 0.507128 -0.0576005 0.00459871
0.65205 -1.21843 0.47743 0.485558 -0.0582292 0.00365022
0.664452 -1.33365 0.477647 0.460321 -0.0835306 0.00126596
0.540433 -1.60704 0.477476 0.427337 -0.129844 0.00145396
0.467235 -1.89799 0.478008 0.38626 -0.179345 0.00309238
0.309953 -2.07136 0.481801 0.355996 -0.200828 0.00448216
0.281499 -2.05049 0.483654 0.338014 -0.190839 0.00516236
0.161501 -2.12968 0.480088 0.319317 -0.202759 0.00393753
0.132925 -2.33806 0.479316 0.305694 -0.228159 0.00202702
0.0185922 -2.87555 0.478898 0.284816 -0.330547 0.00157288
0.226414 -3.14663 0.471061 0.22464 -0.420863 0.00277942
0.265081 -3.98842 0.470464 0.170749 -0.537052 0.0119311
-0.320237 -4.31569 0.486706 -0.0722278 -0.536108 0.0316704
-0.719392 -5.45846 0.493224 -0.139828 -0.681436 0.0266678
-1.74495 -6.24094 0.488564 -0.385542 -0.793361 -0.00720085
-1.64322 -7.99718 0.535039 -0.360265 -1.04377 -0.0141571
-1.61504 -10.3003 0.508805 -0.368573 -1.32448 -0.0622444
-1.26374 -12.4905 0.520412 -0.301465 -1.54172 -0.0499404
-0.9578 -15.1555 0.468115 -0.265121 -1.86503 -0.0414396
-0.483779 -17.0179 0.459703 -0.22221 -2.09085 -0.000852515
0.340378 -19.6727 0.520542 -0.0560187 -2.1282 0.0263225
0.850942 -21.3021 0.383775 -0.0504688 -2.46727 0.0135719
2.10561 -22.5094 0.523756 0.177189 -1.94295 -0.00556154
3.23956 -21.6633 0.432192 0.319657 -1.6618 -0.0280108
4.32507 -21.115 0.389598 0.426776 -1.45969 -0.079312
5.502 -20.5284 0.356556 0.567096 -1.42397 -0.0797057
7.0009 -21.9746 0.268897 0.756812 -1.69139 -0.101832
8.28442 -22.2194 0.28327 0.886787 -1.67225 -0.0657332
9.32701 -15.5036 0.456252 0.851891 -0.284343 -0.0337958
10.5664 -10.3644 0.307409 0.968491 0.369365 -0.0246342
13.9333 -11.3648 0.202955 1.47099 -0.168655 -0.0727184
17.021 -13.3636 0.0929214 1.85348 -0.544787 -0.119315
19.3637 -16.6256 -0.197709 2.20262 -1.43318 -0.209345
20.7511 -17.7453 -0.0305961 2.32852 -1.55813 -0.169726
22.6362 -19.2483 -0.0819277 2.51274 -1.82135 -0.163728
23.685 -19.9366 0.00249881 2.51823 -1.82142 -0.115966
25.4144 -21.0543 -0.0227862 2.55547 -1.81038 -0.082333
26.226 -22.2169 -0.0879928 2.54524 -1.97021 -0.0819939
27.817 -24.4777 -0.191842 2.70671 -2.39429 -0.110934
28.379 -25.6405 -0.0535078 2.61838 -2.42042 -0.0956112
30.022 -28.4986 -0.162321 2.8119 -2.94552 -0.129792
30.1699 -29.31 0.0252781 2.57412 -2.73196 -0.104227
31.8292 -31.9895 -0.0809742 2.70742 -3.06889 -0.107436
32.2095 -33.6012 -0.144465 2.61741 -3.17113 -0.115907
33.3233 -36.2385 -0.203387 2.60496 -3.3903 -0.102972
33.6616 -38.1767 -0.206164 2.54184 -3.57516 -0.096686
34.7581 -41.6996 -0.268437 2.54417 -3.95233 -0.108814
34.6358 -43.9531 -0.188059 2.39164 -4.14251 -0.101102
34.916 -47.3239 -0.185127 2.23712 -4.38207 -0.114023
34.449 -49.7464 -0.148761 2.0345 -4.54452 -0.116546
